tree
version=v2
num_class=1
num_tree_per_iteration=1
label_index=0
max_feature_idx=8
objective=regression
feature_names=RESOURCE MGR_ID ROLE_ROLLUP_1 ROLE_ROLLUP_2 ROLE_DEPTNAME ROLE_TITLE ROLE_FAMILY_DESC ROLE_FAMILY ROLE_CODE
feature_infos=[0:312153] [25:311696] [4292:311178] [23779:286791] [4674:286792] [117879:311867] [4673:311867] [3130:308574] [117880:270691]
tree_sizes=2451 2536 2543 2545 2566 2558 2544 2566 2561 2568 2556 2564 2553 2564 2560 2568 2575 2564 2559 2564 2550 2559 2550 2570 2536 2554 2554 2577 2555 2552 2569 2572 2578 2564 2569 2580 2578 2562 2574 2569 2570 2556 2551 2560 2557 2578 2568 2546 2575 2566 2575 2556 2576 2580 2565 2580 2582 2562 2560 2575 2574 2584 2563 2575 2574 2585 2567 2564 2582 2559 2579 2576 2571 2574 2592 2565 2584 2569 2588 2581 2564 2581 2574 2557 2568 2572 2586 2554 2571 2560 2585 2568 2551 2576 2575 2567 2565 2565 2568 2563

Tree=0
num_leaves=31
num_cat=0
split_feature=7 7 2 3 6 3 6 8 3 3 2 3 5 1 4 6 4 1 6 1 3 4 1 1 4 5 4 2 1 1
split_gain=6.98567 5.15782 6.11573 7.20551 5.84582 4.00537 2.70944 5.98216 6.38751 5.52097 8.25744 4.93847 6.93119 6.68471 2.45831 2.12453 2.93376 2.56619 3.16402 2.31105 2.16201 2.94141 1.8775 1.85956 1.83031 1.82642 2.03003 2.13549 1.71879 3.52183
threshold=68840.000000000015 291857.00000000006 118166.00000000001 118308.00000000001 282895.50000000006 117961.00000000001 117909.50000000001 118320.50000000001 118174.00000000001 120863.50000000001 121651.50000000001 118046.50000000001 118780.50000000001 54427.000000000007 118981.50000000001 131691.00000000003 117943.00000000001 23480.000000000004 130965.00000000001 118385.00000000001 118599.50000000001 138392.50000000003 18042.000000000004 56810.500000000007 118981.50000000001 258803.50000000003 118064.50000000001 118552.50000000001 7552.0000000000009 4032.5000000000005
decision_type=2 2 2 2 2 2 2 2 2 2 2 2 2 2 2 2 2 2 2 2 2 2 2 2 2 2 2 2 2 2
left_child=5 6 -3 4 22 -1 7 9 11 -2 -11 -9 13 24 -15 16 19 18 -18 -7 -17 -22 -4 -19 -13 26 -24 -28 29 -26
right_child=1 2 3 -5 -6 15 -8 8 -10 10 -12 12 -14 14 -16 20 17 23 -20 -21 21 -23 25 -25 28 -27 27 -29 -30 -31
leaf_value=0.9424372273546936 0.94313309831677783 0.94221383643760892 0.93951507246039367 0.94121424811140486 0.92570708807017932 0.94041722847001741 0.942572158852516 0.94080864860790214 0.94169268879081569 0.92162440064042284 0.94384662335935043 0.9431323376290992 0.92357635263600435 0.93350179554191859 0.92036836196500516 0.94161077425277151 0.94060798692332492 0.9308836601066427 0.93061132894587151 0.93080314480693638 0.93972897620849027 0.9282466230106633 0.92910086031789252 0.9387246720253537 0.93979256921468124 0.93930116871229707 0.94091979402563797 0.92949879695169502 0.94047162328391332 0.92538508448516443
leaf_count=1043 2817 1525 187 661 43 1041 19467 395 3482 27 34 84 37 29 23 1060 176 81 34 23 102 25 59 41 37 66 41 23 80 26
internal_value=0 0.00515014 -0.0373115 -0.0948877 -0.19748 -0.0413929 0.00931822 -0.00744721 -0.0315447 0.0276608 -0.269979 -0.117919 -0.211097 -0.157164 -0.480571 -0.0625126 -0.0889581 -0.171026 -0.104015 -0.0633505 -0.0314107 -0.154708 -0.157535 -0.286372 -0.0830791 -0.227824 -0.299834 -0.176485 -0.1519 -0.275443
internal_count=32769 29143 2605 1080 419 3626 26538 7071 4193 2878 61 711 316 279 52 2583 1396 332 210 1064 1187 127 376 122 227 189 123 64 143 63
shrinkage=1


Tree=1
num_leaves=31
num_cat=0
split_feature=7 7 2 3 6 3 6 8 3 3 2 3 5 1 4 6 4 1 6 1 3 4 4 1 4 5 4 2 1 1
split_gain=6.57282 4.853 5.75429 6.77966 5.50033 3.76865 2.54931 5.62862 6.01 5.19468 7.76942 4.6466 6.52156 6.28964 2.31302 1.99897 2.76037 2.42441 3.07919 2.17447 2.03424 2.76757 2.02129 1.76654 1.72214 1.71848 1.91005 2.00928 1.61721 3.31369
threshold=68840.000000000015 291857.00000000006 118166.00000000001 118308.00000000001 282895.50000000006 117961.00000000001 117909.50000000001 118320.50000000001 118174.00000000001 120863.50000000001 121651.50000000001 118046.50000000001 118780.50000000001 54427.000000000007 118981.50000000001 131691.00000000003 117943.00000000001 22822.500000000004 130965.00000000001 118385.00000000001 118599.50000000001 138392.50000000003 118903.00000000001 18042.000000000004 118981.50000000001 258803.50000000003 118064.50000000001 118552.50000000001 7552.0000000000009 4032.5000000000005
decision_type=2 2 2 2 2 2 2 2 2 2 2 2 2 2 2 2 2 2 2 2 2 2 2 2 2 2 2 2 2 2
left_child=5 6 -3 4 23 -1 7 9 11 -2 -11 -9 13 24 -15 16 19 18 -18 -7 -17 -22 -19 -4 -13 26 -25 -28 29 -26
right_child=1 2 3 -5 -6 15 -8 8 -10 10 -12 12 -14 14 -16 20 17 22 -20 -21 21 -23 -24 25 28 -27 27 -29 -30 -31
leaf_value=0.00031748718713353944 0.00099248204582605892 0.00010079800911614151 -0.0025170029070288101 -0.00086880268447337827 -0.01591074776164321 -0.0016419117165573734 0.00044837076301327801 -0.0012622341980473904 -0.00040471519566623044 -0.019870954710576268 0.0016846012696623801 0.00099174416757055696 -0.017977560919684332 -0.0083498812800851356 -0.021089311974204106 -0.00048417228326763748 -0.0012539538381887332 -0.0064381511638236938 -0.011153633739141857 -0.010967572243965188 -0.0023095163177041444 -0.013447398626804351 -0.016240972683805487 -0.0126187887307951 -0.0022478311609577489 -0.0027244897593151438 -0.0011544231579798023 -0.012232789954413537 -0.001589148780796677 -0.016223090543196751
leaf_count=1043 2817 1525 187 661 43 1041 19467 395 3482 27 34 84 37 29 23 1060 168 107 34 23 102 25 23 59 37 66 41 23 80 26
internal_value=0 0.00499564 -0.0361921 -0.0920411 -0.191555 -0.0401511 0.00903867 -0.0072238 -0.0305984 0.0268309 -0.261879 -0.114381 -0.204764 -0.152449 -0.466154 -0.0606372 -0.0862893 -0.165895 -0.0973412 -0.06145 -0.0304684 -0.150067 -0.272417 -0.152809 -0.0805867 -0.220989 -0.290838 -0.17119 -0.147343 -0.26718
internal_count=32769 29143 2605 1080 419 3626 26538 7071 4193 2878 61 711 316 279 52 2583 1396 332 202 1064 1187 127 130 376 227 189 123 64 143 63
shrinkage=0.03


Tree=2
num_leaves=31
num_cat=0
split_feature=7 7 2 3 6 3 6 8 3 3 2 3 5 1 4 3 4 6 4 5 3 3 0 0 1 0 2 4 4 7
split_gain=6.18436 4.56618 5.41421 6.37898 5.17526 3.54592 2.39865 5.29596 5.65481 4.88767 7.31025 4.37199 6.13614 5.91793 2.17632 1.90691 2.66179 2.20249 2.67089 3.41591 2.04423 3.53351 2.70276 2.99338 1.73554 1.67221 1.68365 1.62036 1.61205 1.6667
threshold=68840.000000000015 291857.00000000006 118166.00000000001 118308.00000000001 282895.50000000006 117961.00000000001 117909.50000000001 118320.50000000001 118174.00000000001 120863.50000000001 121651.50000000001 118046.50000000001 118780.50000000001 54427.000000000007 118981.50000000001 118599.50000000001 138392.50000000003 131691.00000000003 118558.00000000001 118796.50000000001 118082.50000000001 118005.50000000001 38705.000000000007 37573.500000000007 82619.500000000015 41805.500000000007 118217.50000000001 118981.50000000001 120715.50000000001 19757.000000000004
decision_type=2 2 2 2 2 2 2 2 2 2 2 2 2 2 2 2 2 2 2 2 2 2 2 2 2 2 2 2 2 2
left_child=5 6 -3 4 25 -1 7 9 11 -2 -11 -9 13 27 -15 17 24 18 20 -20 21 -7 23 -23 -17 -4 -27 -13 29 -21
right_child=1 2 3 -5 -6 15 -8 8 -10 10 -12 12 -14 14 -16 16 -18 -19 19 28 -22 22 -24 -25 -26 26 -28 -29 -30 -31
leaf_value=0.00030796259841662924 0.00096270751942016566 9.7774054134478343e-05 -0.003390165117322182 -0.00084273856150130096 -0.015433425421631614 -7.5024153818102453e-05 0.00043491962979655174 -0.001224367072499251 -0.00039257372952548338 -0.019274825164013437 0.0016340633109211921 0.00096199186252696168 -0.017438234557976592 -0.0080993847086511805 -0.020456632560361985 -0.0023921744161989628 -0.013009884216719203 -0.0004696471239528004 -0.015478327588902578 -0.0086228607626897946 -0.00044484631452604989 -0.0064988773900109369 -0.0026522680006243965 -0.019107308037579058 -0.011009725296626921 -0.0042401090399785471 -0.012860681118541642 -0.0042876849560575048 0.0019629551199349489 -0.0018683718072791252
leaf_count=1043 2817 1525 294 661 43 204 19467 395 3482 27 34 84 37 29 23 246 27 1060 27 70 535 111 165 20 23 44 38 143 33 62
internal_value=0 0.00484577 -0.0351064 -0.0892798 -0.185809 -0.0389466 0.00876751 -0.00700708 -0.0296804 0.026026 -0.254023 -0.11095 -0.198621 -0.147875 -0.45217 -0.0588181 -0.134343 -0.0490431 -0.077887 -0.186211 -0.0577921 -0.103763 -0.173552 -0.280794 -0.1043 -0.148225 -0.2745 -0.0781691 -0.132255 -0.181677
internal_count=32769 29143 2605 1080 419 3626 26538 7071 4193 2878 61 711 316 279 52 2583 296 2287 1227 192 1035 500 296 131 269 376 82 227 165 132
shrinkage=0.03


Tree=3
num_leaves=31
num_cat=0
split_feature=7 7 2 3 6 3 6 8 3 3 2 3 5 1 4 3 4 6 4 5 3 3 0 0 1 1 5 4 2 3
split_gain=5.81887 4.29632 5.09423 6.00199 4.8694 3.33636 2.25689 4.98297 5.32061 4.59881 6.87821 4.1136 5.77349 5.56818 2.0477 1.79421 2.50448 2.07232 2.51304 3.21403 1.92342 3.32468 2.54303 2.81647 1.656 1.63297 1.59879 1.79963 1.8701 1.5424
threshold=68840.000000000015 291857.00000000006 118166.00000000001 118308.00000000001 282895.50000000006 117961.00000000001 117909.50000000001 118320.50000000001 118174.00000000001 120863.50000000001 121651.50000000001 118046.50000000001 118780.50000000001 54427.000000000007 118981.50000000001 118599.50000000001 138392.50000000003 131691.00000000003 118558.00000000001 118796.50000000001 118082.50000000001 118005.50000000001 38705.000000000007 37573.500000000007 18042.000000000004 82619.500000000015 258803.50000000003 118064.50000000001 118552.50000000001 118295.50000000001
decision_type=2 2 2 2 2 2 2 2 2 2 2 2 2 2 2 2 2 2 2 2 2 2 2 2 2 2 2 2 2 2
left_child=5 6 -3 4 24 -1 7 9 11 -2 -11 -9 13 -13 -15 17 25 18 20 -20 21 -7 23 -23 -4 -17 27 -26 -29 -10
right_child=1 2 3 -5 -6 15 -8 8 29 10 -12 12 -14 14 -16 16 -18 -19 19 -21 -22 22 -24 -25 26 -27 -28 28 -30 -31
leaf_value=0.00029872370846319515 0.00093382629898155578 9.4840774233223953e-05 -0.0023117970089542674 -0.00081745646713631231 -0.014970422501480856 -7.2773523519144325e-05 0.00042187200505260623 -0.0011876361991597125 0.0012059110936810489 -0.018696580239468148 0.0015850413590669632 -0.002274721119766193 -0.016915087571015227 -0.0078564032475496159 -0.019842934051285618 -0.0023204092190759937 -0.012619588292307323 -0.00045555775349010835 -0.015013978017701043 -0.0038486176952719688 -0.00043150100696866755 -0.0063039111285596279 -0.0025727001591162243 -0.018534089371562004 -0.012094315728646214 -0.010679433890010999 -0.0025269767371090975 -0.00098983357774048313 -0.011677631405384645 -0.0006320515952394632
leaf_count=1043 2817 1525 187 661 43 204 19467 395 476 27 34 227 37 29 23 246 27 1060 27 165 535 111 165 20 59 23 66 41 23 3006
internal_value=0 0.00470039 -0.0340532 -0.0866014 -0.180235 -0.0377782 0.00850449 -0.00679687 -0.02879 0.0252452 -0.246402 -0.107621 -0.192663 -0.143439 -0.438605 -0.0570535 -0.130313 -0.0475718 -0.0755504 -0.180625 -0.0560583 -0.10065 -0.168346 -0.27237 -0.143778 -0.101171 -0.209791 -0.277164 -0.161025 -0.0126932
internal_count=32769 29143 2605 1080 419 3626 26538 7071 4193 2878 61 711 316 279 52 2583 296 2287 1227 192 1035 500 296 131 376 269 189 123 64 3482
shrinkage=0.03


Tree=4
num_leaves=31
num_cat=0
split_feature=7 7 2 3 6 3 8 8 3 7 4 4 5 3 4 6 6 7 2 1 3 1 1 1 6 6 3 4 6 4
split_gain=5.47497 4.04241 4.79316 5.64727 4.58162 3.14178 2.18091 3.45906 4.67319 6.51832 6.66141 12.4904 5.2337 4.61485 4.05265 2.96507 2.41425 2.80999 3.4799 2.01983 3.06762 3.67944 8.3576 1.7768 1.76099 2.62602 1.70066 2.35647 1.96014 2.33104
threshold=68840.000000000015 291857.00000000006 118166.00000000001 118308.00000000001 282895.50000000006 117957.00000000001 118790.00000000001 118307.50000000001 118174.00000000001 118625.00000000001 118981.50000000001 119161.50000000001 118693.50000000001 118046.50000000001 120317.50000000001 311057.50000000006 123871.50000000001 118411.00000000001 120837.00000000001 15479.500000000002 118341.50000000001 19904.500000000004 19650.000000000004 7077.5000000000009 118780.50000000001 118970.00000000001 118599.50000000001 138392.50000000003 131691.00000000003 118558.00000000001
decision_type=2 2 2 2 2 2 2 2 2 2 2 2 2 2 2 2 2 2 2 2 2 2 2 2 2 2 2 2 2 2
left_child=5 6 -3 4 -4 -1 7 -2 9 -9 -11 -12 23 -14 -15 16 19 18 -18 -10 -21 22 -22 -13 -23 -26 28 -28 29 -7
right_child=1 2 3 -5 -6 26 -8 8 15 10 11 12 13 14 -16 -17 17 -19 -20 20 21 24 -24 -25 25 -27 27 -29 -30 -31
leaf_value=0.0003140891909833507 0.00055875522281154078 9.1995633185886944e-05 -0.0041839500970425126 -0.00079293264580521387 -0.014521309847748555 -0.0016313214204006494 0.0006154851566667123 0.0010907949913631786 2.7105968073784932e-05 -0.00094415706146981334 -0.015213898776732768 -0.0045819745375351474 0.0018050528168678283 -0.0054884527689393822 -0.019576054804958404 -0.004499525844140817 -0.00050476951088677057 0.0010533855508436029 -0.012066319878213107 8.4488247235061073e-05 -0.0034596382894920646 -0.00034882322783577494 -0.019451335900846651 9.1286427150033924e-05 -0.012760764335592588 -0.0018689512672196878 -0.0029440677091202325 -0.012241000276472833 -0.00043992287949767221 -0.005220146107781736
leaf_count=1018 7015 1525 376 661 43 1044 9374 506 2886 646 97 110 25 34 40 131 987 2951 24 716 218 422 34 219 27 76 269 27 1075 193
internal_value=0 0.00455938 -0.0330316 -0.0840034 -0.174827 -0.0366448 0.00824935 0.00154991 -0.0102525 -0.058483 -0.0994655 -0.18313 -0.1097 -0.311287 -0.436779 -0.000705484 0.00163902 0.019525 -0.0259743 -0.0145437 -0.0444036 -0.0879164 -0.187242 -0.0490401 -0.0402403 -0.15747 -0.0550354 -0.126403 -0.0458983 -0.073042
internal_count=32769 29143 2605 1080 419 3626 26538 17164 10149 1677 1171 525 428 99 74 8472 8341 3962 1011 4379 1493 777 252 329 525 103 2608 296 2312 1237
shrinkage=0.03


Tree=5
num_leaves=31
num_cat=0
split_feature=7 7 2 3 6 3 8 8 3 7 4 4 5 3 4 6 6 7 2 1 3 1 1 1 6 6 4 4 6 4
split_gain=5.1514 3.8035 4.50989 5.31352 4.31085 2.9561 2.05202 3.25463 4.39701 6.13309 6.26772 11.7522 4.92439 4.34211 3.81314 2.78983 2.27157 2.64392 3.27424 1.90046 2.88632 3.46198 7.86366 1.67179 1.65691 2.47082 1.64887 4.00709 1.62033 1.64318
threshold=68840.000000000015 291857.00000000006 118166.00000000001 118308.00000000001 282895.50000000006 117957.00000000001 118790.00000000001 118307.50000000001 118174.00000000001 118625.00000000001 118981.50000000001 119161.50000000001 118693.50000000001 118046.50000000001 120317.50000000001 311057.50000000006 123871.50000000001 118411.00000000001 120837.00000000001 15479.500000000002 118341.50000000001 19904.500000000004 19650.000000000004 7077.5000000000009 118780.50000000001 118970.00000000001 120681.00000000001 121916.00000000001 118445.50000000001 118666.50000000001
decision_type=2 2 2 2 2 2 2 2 2 2 2 2 2 2 2 2 2 2 2 2 2 2 2 2 2 2 2 2 2 2
left_child=5 6 -3 4 -4 -1 7 -2 9 -9 -11 -12 23 -14 -15 16 19 18 -18 -10 -21 22 28 26 -23 -26 -13 -28 29 -22
right_child=1 2 3 -5 -6 -7 -8 8 15 10 11 12 13 14 -16 -17 17 -19 -20 20 21 24 -24 -25 25 -27 27 -29 -30 -31
leaf_value=0.00030466654943576727 0.00054199258532276859 8.9235794446507435e-05 -0.0040584315238718655 -0.0007691447222647616 -0.014085670823967732 -0.0016015287844944126 0.00059702061395674902 0.0010580711649811785 2.6292805666425371e-05 -0.000915832395201128 -0.014757481861821154 -0.00034639484800246299 0.0017509011849761009 -0.0053237991823869594 -0.018988773085176946 -0.0043645399149137599 -0.00048962638042527489 0.0010217839830514942 -0.01170432973653078 8.1953587811752404e-05 -0.010266273384158676 -0.00033835852130258815 -0.01886779539506225 8.8547694764725139e-05 -0.012377941525644726 -0.0018128826655447483 -0.018745443966239693 -0.0023662063779263964 0.0017874694615602493 -0.0031413990672487409
leaf_count=1018 7015 1525 376 661 43 2608 9374 506 2886 646 97 49 25 34 40 131 987 2951 24 716 37 422 34 219 27 76 20 41 44 137
internal_value=0 0.0044226 -0.0320406 -0.0814833 -0.169583 -0.0355455 0.00800187 0.00150342 -0.00994495 -0.0567285 -0.0964815 -0.177636 -0.106409 -0.301949 -0.423676 -0.000684319 0.00158985 0.0189393 -0.025195 -0.0141074 -0.0430715 -0.0852789 -0.181624 -0.0475689 -0.0390331 -0.152745 -0.148151 -0.257882 -0.111862 -0.155215
internal_count=32769 29143 2605 1080 419 3626 26538 17164 10149 1677 1171 525 428 99 74 8472 8341 3962 1011 4379 1493 777 252 329 525 103 110 61 218 174
shrinkage=0.03


Tree=6
num_leaves=31
num_cat=0
split_feature=2 7 3 7 6 1 1 1 4 6 3 4 4 1 4 6 1 1 5 2 4 0 6 5 3 2 1 4 1 0
split_gain=4.94505 4.02754 4.99949 4.48552 4.05607 3.0786 2.83201 2.3138 2.1705 2.08884 1.69135 1.79152 4.50885 3.04886 3.52629 1.60893 2.8536 3.65782 1.86733 2.48388 2.0317 1.57636 1.55798 4.07587 4.19453 3.82075 6.30375 3.00568 2.66349 2.00798
threshold=117976.50000000001 291857.00000000006 118308.00000000001 68840.000000000015 282895.50000000006 27886.500000000004 13827.500000000002 72304.500000000015 138392.50000000003 282895.50000000006 118280.50000000001 120622.00000000001 120664.50000000001 19829.500000000004 123562.50000000001 250534.50000000003 4102.5000000000009 3694.5000000000005 120328.50000000001 119678.00000000001 118627.00000000001 41805.500000000007 117909.50000000001 118319.50000000001 118099.00000000001 117906.00000000001 52315.000000000007 118903.00000000001 22822.500000000004 45092.000000000007
decision_type=2 2 2 2 2 2 2 2 2 2 2 2 2 2 2 2 2 2 2 2 2 2 2 2 2 2 2 2 2 2
left_child=6 3 4 8 21 10 -1 22 9 -2 -5 15 -13 -14 -15 -12 17 18 -17 20 -20 -3 23 -8 25 -25 28 -28 29 -27
right_child=1 2 -4 5 -6 -7 7 -9 -10 -11 11 12 13 14 -16 16 -18 -19 19 -21 -22 -23 -24 24 -26 26 27 -29 -30 -31
leaf_value=0.00048528672911300074 -0.0020683388349818049 -0.0029108191258749184 -0.00074607036827461799 0.00073144778030589941 -0.013663099875976872 0.00086967163796674511 0.00031945653211994048 0.0010404865436786468 -0.01094761828041595 0.0013817904689791482 0.00010090511022372169 -0.015483981779088144 -0.001148128463198961 -0.014084562235385985 0.00050040494352579111 0.00053477285360848455 0.00062104278389429077 -0.013020030279692851 -0.0049151947733480483 0.0016473051533102989 -0.016924123210566383 -0.0076147605696829344 -9.3637128123539486e-05 0.0018913519432989219 -0.0011200579572527142 -0.0092049373125427224 -0.0082567279413342468 -0.02157708804453573 0.0006564306766844131 -0.0017847647718512093
leaf_count=14022 1342 294 661 618 43 2249 1170 1292 23 179 1063 23 497 37 25 81 173 38 32 26 21 82 7485 59 961 89 30 31 71 52
internal_value=0 -0.0225348 -0.0790388 -0.0130399 -0.164495 0.00181549 0.00669658 -0.00512936 -0.0600208 -0.0554103 -0.0213862 -0.0354163 -0.0822091 -0.0643553 -0.273451 -0.016425 -0.0731237 -0.155102 -0.0888638 -0.198254 -0.322448 -0.131223 -0.0103 -0.032116 -0.0708125 -0.167715 -0.217586 -0.50087 -0.136076 -0.215614
internal_count=32769 7507 1080 6427 419 4883 25262 11240 1544 1521 2634 2016 582 559 62 1434 371 198 160 79 53 376 9948 2463 1293 332 273 61 212 141
shrinkage=0.03


Tree=7
num_leaves=31
num_cat=0
split_feature=7 7 2 3 6 3 8 8 3 7 4 4 5 3 4 6 6 7 2 1 3 1 1 1 6 6 2 1 3 2
split_gain=4.66207 3.3901 3.98051 4.70402 3.81636 2.6778 1.92132 2.98622 4.02199 5.66529 5.85804 10.7412 4.61034 4.0606 3.56093 2.61722 2.11253 2.45469 2.92294 1.70441 2.70553 3.19279 7.24271 1.5922 1.57568 2.32047 1.56144 2.36977 2.13062 6.42766
threshold=68840.000000000015 291857.00000000006 118166.00000000001 118308.00000000001 282895.50000000006 117961.00000000001 118790.00000000001 118307.50000000001 118174.00000000001 118625.00000000001 118981.50000000001 119161.50000000001 118693.50000000001 118046.50000000001 120317.50000000001 311057.50000000006 123871.50000000001 118411.00000000001 120837.00000000001 15479.500000000002 118341.50000000001 19904.500000000004 19650.000000000004 7077.5000000000009 118780.50000000001 118970.00000000001 118983.00000000001 10560.500000000002 120863.50000000001 121651.50000000001
decision_type=2 2 2 2 2 2 2 2 2 2 2 2 2 2 2 2 2 2 2 2 2 2 2 2 2 2 2 2 2 2
left_child=5 6 -3 4 -4 -1 7 26 9 -9 -11 -12 23 -14 -15 16 19 18 -18 -10 -21 22 -22 -13 -23 -26 -2 28 -28 -30
right_child=1 2 3 -5 -6 -7 -8 8 15 10 11 12 13 14 -16 -17 17 -19 -20 20 21 24 -24 -25 25 -27 27 -29 29 -31
leaf_value=0.00026851592433646906 0.00064403668996303295 8.0358074825318134e-05 -0.003818578283163778 -0.00072368822811501115 -0.013253207740395567 -0.0015325088487477252 0.00057300306996916793 0.0010202291802219722 1.3320170296452893e-05 -0.00086570261853628847 -0.014146003936676635 -0.0043262084329670127 0.0016875794559717177 -0.0051589365873266667 -0.018364272125065327 -0.0042317992744555005 -0.00048054364461757492 0.00098075925399997762 -0.011076567769050598 9.5104764855607265e-05 -0.0032283556263107771 -0.00031687716719522291 -0.01811525558504988 9.7630510795606318e-05 -0.012010215669870377 -0.0017716389080803645 -0.0017542706357466208 0.00073232085737972154 -0.020508509874343873 0.00057103480026125906
leaf_count=1043 6476 1525 376 661 43 2583 9374 506 2886 646 97 110 25 34 40 131 987 2951 24 716 218 422 34 219 27 76 185 301 23 30
internal_value=0 0.00420731 -0.0302173 -0.0766676 -0.15956 -0.0338151 0.00758647 0.00129838 -0.00966776 -0.0544118 -0.0926187 -0.171076 -0.102982 -0.292184 -0.409899 -0.000810848 0.00139184 0.0181229 -0.0244027 -0.013746 -0.0411754 -0.0820396 -0.174564 -0.0460488 -0.0376281 -0.148518 0.0171637 -0.0345502 -0.109118 -0.28589
internal_count=32769 29143 2605 1080 419 3626 26538 17164 10149 1677 1171 525 428 99 74 8472 8341 3962 1011 4379 1493 777 252 329 525 103 7015 539 238 53
shrinkage=0.03


Tree=8
num_leaves=31
num_cat=0
split_feature=2 7 3 7 6 1 1 1 4 6 1 3 6 6 3 5 1 4 4 5 4 2 6 8 3 1 8 6 6 5
split_gain=4.43613 3.5467 4.42601 3.98854 3.59081 2.83692 2.60913 2.14667 2.04156 1.96652 1.56082 1.52551 1.60436 3.70115 4.18155 2.65034 1.84576 1.58889 4.3325 1.49092 1.70396 1.76253 1.50732 1.48076 1.87692 2.99498 1.40394 1.53443 1.40022 3.68403
threshold=117976.50000000001 291857.00000000006 118308.00000000001 68840.000000000015 282895.50000000006 28253.500000000004 13827.500000000002 72304.500000000015 138392.50000000003 282895.50000000006 18042.000000000004 118280.50000000001 250534.50000000003 269410.50000000006 119762.50000000001 118369.00000000001 3755.5000000000005 120622.00000000001 120689.50000000001 258803.50000000003 118064.50000000001 118552.50000000001 192183.00000000003 119469.00000000001 119679.00000000001 2843.0000000000005 118810.00000000001 311620.00000000006 117909.50000000001 118319.50000000001
decision_type=2 2 2 2 2 2 2 2 2 2 2 2 2 2 2 2 2 2 2 2 2 2 2 2 2 2 2 2 2 2
left_child=6 3 4 8 10 11 26 28 9 -2 -3 -5 17 14 16 -15 -14 -13 -19 20 -12 -22 -21 -17 25 -25 27 -1 29 -8
right_child=1 2 -4 5 -6 -7 7 -9 -10 -11 19 12 13 15 -16 23 -18 18 -20 22 21 -23 -24 24 -26 -27 -28 -29 -30 -31
leaf_value=0.00028342620808830628 -0.0019618836227365826 -0.0017608399585606579 -0.00070197745582790494 0.0007065483750983739 -0.012855611381142638 0.0008628489102920358 0.00029958500187748515 0.0010001696211692441 -0.010573214234217353 0.0013857083085029483 -0.011256022502557706 0.00012865776152334849 -0.0087063546461421375 -0.0082556719439370284 -0.017318614303237861 0.001522265002503991 -0.00047375034344823729 -0.014709894566432288 -0.0013061410423803638 0.0025445142997936768 -0.00045935654967296411 -0.010835200029870738 -0.0065228839895941993 -0.013519804143905641 0.001627875118067971 -0.0020974357523211914 0.00088784291828479696 -0.0043070872788402168 -9.5495730100987188e-05 -0.0020238078320766271
leaf_count=9283 1342 187 661 626 43 2149 1170 1292 23 179 59 1106 43 42 27 200 57 23 385 33 41 23 33 25 81 119 4673 66 7485 1293
internal_value=0 -0.0213438 -0.0743676 -0.0124336 -0.154774 0.00157464 0.00634264 -0.00500841 -0.0567355 -0.052264 -0.123467 -0.0197951 -0.0326675 -0.0767114 -0.228079 -0.0355473 -0.133792 -0.0153874 -0.0687248 -0.187555 -0.252615 -0.139606 -0.0663062 -0.011865 -0.0675159 -0.136016 0.0154416 0.0083673 -0.00998879 -0.0306708
internal_count=32769 7507 1080 6427 419 4883 25262 11240 1544 1521 376 2734 2108 594 127 467 100 1514 408 189 123 64 66 425 225 144 14022 9349 9948 2463
shrinkage=0.03


Tree=9
num_leaves=31
num_cat=0
split_feature=7 7 2 3 6 3 8 8 3 7 4 4 5 3 6 6 6 7 2 6 3 7 5 3 6 4 6 6 0 4
split_gain=4.24176 3.01775 3.51836 4.16443 3.3786 2.44235 1.7301 2.73946 3.7708 5.29098 5.523 10.0809 4.33877 3.81187 3.38846 2.38825 1.94352 2.27195 2.55717 1.64774 1.72347 1.55452 3.62821 2.50108 1.91974 2.13072 2.23871 3.69368 2.53083 1.91507
threshold=68840.000000000015 291857.00000000006 118166.00000000001 118308.00000000001 282895.50000000006 117957.00000000001 118790.00000000001 118307.50000000001 118174.00000000001 118625.00000000001 118981.50000000001 119161.50000000001 118693.50000000001 118046.50000000001 126750.00000000001 311057.50000000006 123871.50000000001 118411.00000000001 120837.00000000001 121357.50000000001 118454.50000000001 19757.000000000004 118796.50000000001 118599.50000000001 121579.50000000001 118903.00000000001 118174.50000000001 118186.00000000001 38705.000000000007 120404.00000000001
decision_type=2 2 2 2 2 2 2 2 2 2 2 2 2 2 2 2 2 2 2 2 2 2 2 2 2 2 2 2 2 2
left_child=5 6 -3 4 -4 -1 7 -2 9 -9 -11 -12 -13 -14 -15 16 19 18 -18 -10 -21 24 -23 -24 25 26 -7 28 -28 -26
right_child=1 2 3 -5 -6 21 -8 8 15 10 11 12 13 14 -16 -17 17 -19 -20 20 -22 22 23 -25 29 -27 27 -29 -30 -31
leaf_value=0.00027856438111491895 0.00049290262237562936 7.3841446271685296e-05 -0.0035929003441111836 -0.00068091833487761715 -0.012469942441513372 -0.0011275421324397873 0.00054381144578990483 0.00098566001060275215 -0.00024058002680321858 -0.00082813885391635046 -0.013703169368745124 -0.0013349536515342066 0.0016296714618802071 -0.015960697363007745 -0.0017213287523814608 -0.0040400084733735516 -0.00046831931443290509 0.00094425630636111799 -0.010379201164469123 -0.0016858415916317798 -0.0085543284163271116 -0.011448203369297765 -0.0011711471053245275 -0.011546847224235534 4.13752789029129e-05 -0.011897054336965083 -0.016181419545953923 -0.0020232938297770238 -0.0051909889958121555 -0.0030489287071449808
leaf_count=1018 7015 1525 376 661 43 699 9374 506 4097 646 97 329 25 53 21 131 987 2951 24 244 38 44 230 23 1124 20 33 176 44 215
internal_value=0 0.00401318 -0.028466 -0.0721366 -0.15013 -0.0322548 0.00720137 0.00123438 -0.0092689 -0.0525932 -0.0895163 -0.165697 -0.0997292 -0.283274 -0.397327 -0.000693024 0.00141111 0.0174589 -0.0234531 -0.0131085 -0.0870461 -0.0484696 -0.116573 -0.0704798 -0.0397173 -0.0735454 -0.0667592 -0.147364 -0.330039 -0.0151609
internal_count=32769 29143 2605 1080 419 3626 26538 17164 10149 1677 1171 525 428 99 74 8472 8341 3962 1011 4379 282 2608 297 253 2311 972 952 253 77 1339
shrinkage=0.03


Tree=10
num_leaves=31
num_cat=0
split_feature=2 7 3 7 6 1 1 1 4 6 0 2 3 4 4 1 4 6 1 1 5 6 4 6 8 8 5 4 3 4
split_gain=4.01382 3.11223 3.91831 3.52195 3.17892 2.66724 2.4296 2.00264 1.88313 1.82167 1.48609 1.49158 1.45383 1.57497 3.80945 2.67428 3.13152 1.36733 2.49469 3.11034 1.6717 2.36079 1.92739 1.31205 1.28371 1.42791 2.23731 3.05102 1.48703 3.66297
threshold=117976.50000000001 291857.00000000006 118308.00000000001 68840.000000000015 282895.50000000006 27886.500000000004 13827.500000000002 72304.500000000015 138392.50000000003 282895.50000000006 41805.500000000007 118217.50000000001 118280.50000000001 120622.00000000001 120664.50000000001 19829.500000000004 123562.50000000001 250534.50000000003 4102.5000000000009 3694.5000000000005 120328.50000000001 303773.50000000006 118363.50000000001 117882.50000000001 118810.00000000001 117980.00000000001 118045.00000000001 118504.00000000001 118174.00000000001 118981.50000000001
decision_type=2 2 2 2 2 2 2 2 2 2 2 2 2 2 2 2 2 2 2 2 2 2 2 2 2 2 2 2 2 2
left_child=6 3 4 8 10 12 24 -8 9 23 -3 -12 -5 17 -15 -16 -17 -14 19 20 -19 22 -22 -2 25 -1 27 -27 29 -28
right_child=1 2 -4 5 -6 -7 7 -9 -10 -11 11 -13 13 14 15 16 -18 18 -20 -21 21 -23 -24 -25 -26 26 28 -29 -30 -31
leaf_value=0.00086777928754417039 0.0015406192297998226 -0.0024890575481920827 -0.00066049063102019531 0.00066132238568756185 -0.012095844021370244 0.00079501829188351842 -0.0002919232752061796 0.00096354678253017523 -0.010127560813789783 0.0013640254531992215 -0.0032962111332877114 -0.011410168523066921 7.9584008929085745e-05 -0.01428364988254464 -0.0010928847301953754 -0.013242752660770674 0.00050158108770847316 0.0005255546669165294 0.0005960455681116594 -0.012050697240782412 -0.0046057185181416571 0.0017964674990910748 -0.016302316540053912 -0.0021168267376774678 0.00085041317501237499 0.0015934883058071137 0.00029739450770788466 -0.013406511917710303 0.0002603236261731993 -0.0033554179058036698
leaf_count=2426 95 294 661 618 43 2249 9948 1292 23 179 44 38 1063 23 497 37 25 81 173 38 32 26 21 1247 4673 23 728 26 5772 374
internal_value=0 -0.0203024 -0.0699725 -0.0119558 -0.145626 0.00120757 0.00603318 -0.00492037 -0.0535859 -0.0492913 -0.11617 -0.235211 -0.0203885 -0.0333961 -0.0772698 -0.060859 -0.256689 -0.0155896 -0.0678584 -0.144508 -0.0834278 -0.18693 -0.308007 -0.0619306 0.0148135 0.00804891 0.000733043 -0.21219 0.00225082 -0.0314103
internal_count=32769 7507 1080 6427 419 4883 25262 11240 1544 1521 376 82 2634 2016 582 559 62 1434 371 198 160 79 53 1342 14022 9349 6923 49 6874 1102
shrinkage=0.03


Tree=11
num_leaves=31
num_cat=0
split_feature=7 7 2 3 6 3 8 8 3 7 4 4 5 3 4 6 6 7 2 3 3 4 6 6 4 1 4 4 7 5
split_gain=3.84093 2.6667 3.12552 3.68674 2.99105 2.23786 1.58789 2.51559 3.4593 4.94146 5.06242 9.49121 4.09032 3.59471 3.30517 2.23723 1.83052 2.10909 2.27932 1.55498 2.8082 6.17901 2.17091 2.07999 1.79395 1.46988 1.55392 3.78697 1.46701 3.41831
threshold=68840.000000000015 291857.00000000006 118166.00000000001 118308.00000000001 282895.50000000006 117957.00000000001 118790.00000000001 118307.50000000001 118174.00000000001 118625.00000000001 118981.50000000001 119161.50000000001 118693.50000000001 118046.50000000001 120317.50000000001 311057.50000000006 123871.50000000001 118411.00000000001 120837.00000000001 118354.50000000001 118399.50000000001 118633.00000000001 121357.50000000001 121357.50000000001 127377.00000000001 7077.5000000000009 120681.00000000001 121916.00000000001 19757.000000000004 118796.50000000001
decision_type=2 2 2 2 2 2 2 2 2 2 2 2 2 2 2 2 2 2 2 2 2 2 2 2 2 2 2 2 2 2
left_child=5 6 -3 4 -4 -1 7 -2 9 -9 -11 -12 25 -14 -15 16 19 18 -18 -10 21 22 -21 24 -22 26 -13 -28 -7 -30
right_child=1 2 3 -5 -6 28 -8 8 15 10 11 12 13 14 -16 -17 17 -19 -20 20 23 -23 -24 -25 -26 -27 27 -29 29 -31
leaf_value=0.000272107673754041 0.00046982916538535234 7.3107869068130113e-05 -0.0033805599140914831 -0.00064067605505281784 -0.011732969398415364 -0.0011313529393532119 0.00051848666383188396 0.00096348473316301459 7.6395839558532697e-06 -0.00080611674651365152 -0.01324541768155147 -9.4304949957497265e-05 0.0016366881966590882 -0.0046442501750939029 -0.017366520339623093 -0.0039126136580496336 -0.00045465121357093105 0.00091091572117377271 -0.0098116248473525038 -0.01230113604068756 0.00030054163541329103 -0.0012773127219917481 -0.0019348420901224015 -0.0052504822312736173 -0.0080119422031566506 0.00017782235543613564 -0.017970789939165115 -0.0020477840613301206 -0.011088783703744411 -0.0020289810392048521
leaf_count=1018 7015 1525 376 661 43 2311 9374 506 2958 646 97 49 25 34 40 131 987 2951 24 75 885 342 24 71 24 219 20 41 44 253
internal_value=0 0.00381886 -0.0267128 -0.0678733 -0.141258 -0.030693 0.00681588 0.0010994 -0.00896558 -0.0504618 -0.0861445 -0.15908 -0.0950702 -0.273282 -0.384038 -0.000751557 0.00128496 0.0168593 -0.0225592 -0.0128062 -0.0399942 -0.106263 -0.32627 -0.0101732 0.00270234 -0.0414441 -0.135756 -0.242281 -0.0462142 -0.112372
internal_count=32769 29143 2605 1080 419 3626 26538 17164 10149 1677 1171 525 428 99 74 8472 8341 3962 1011 4379 1421 441 99 980 909 329 110 61 2608 297
shrinkage=0.03


Tree=12
num_leaves=31
num_cat=0
split_feature=2 7 3 7 6 1 1 1 4 6 1 5 4 2 6 3 6 6 3 5 1 8 3 1 4 4 5 6 4 6
split_gain=3.64775 2.72561 3.46886 3.12446 2.81428 2.49327 2.2502 1.86814 1.76952 1.71981 1.46314 1.38689 1.60546 1.64036 1.41111 1.34262 1.42113 3.31046 3.52469 2.48149 1.68995 1.35602 1.73416 2.68088 1.34882 3.86447 1.23474 1.23295 1.22458 1.22406
threshold=117976.50000000001 291857.00000000006 118308.00000000001 68840.000000000015 282895.50000000006 28253.500000000004 13827.500000000002 72304.500000000015 138392.50000000003 282895.50000000006 18042.000000000004 258803.50000000003 118064.50000000001 118552.50000000001 192183.00000000003 118280.50000000001 250534.50000000003 269410.50000000006 119762.50000000001 118369.00000000001 3755.5000000000005 119469.00000000001 119679.00000000001 2843.0000000000005 120622.00000000001 120689.50000000001 118987.50000000001 117882.50000000001 120404.00000000001 117909.50000000001
decision_type=2 2 2 2 2 2 2 2 2 2 2 2 2 2 2 2 2 2 2 2 2 2 2 2 2 2 2 2 2 2
left_child=6 3 4 8 10 15 -1 29 9 27 -3 12 26 -14 -13 -5 24 18 20 28 -18 -21 23 -23 -17 -26 -12 -2 -19 -8
right_child=1 2 -4 5 -6 -7 7 -9 -10 -11 11 14 13 -15 -16 16 17 19 -20 21 -22 22 -24 -25 25 -27 -28 -29 -30 -31
leaf_value=0.00042604335553858032 0.0015283412556899223 -0.0013977439574060593 -0.00062145575306148647 0.00064459723459122276 -0.011380979886581731 0.00079026270824193723 -0.00086320002117488037 0.0009294987509701827 -0.0097815976583439362 0.0013644117000382705 -0.0058680972456932072 0.0027542555874044243 -0.0001350302739841182 -0.010144814784112183 -0.0060189919309182605 9.4114534395189437e-05 -0.00836909789765297 -0.0025971321836113928 -0.016094174517525567 0.0014715274097397923 -0.00049164104030320524 -0.01282942826449871 0.0015881745365482788 -0.0020226194819106774 -0.013869489638701727 -0.0012104119332386302 -0.014579305672086774 -0.0020171404991421397 -0.01285397179594094 -9.2185518500919567e-05
leaf_count=14022 95 187 661 626 43 2149 2463 1292 23 179 27 33 41 23 33 1106 43 20 27 200 57 25 81 119 23 385 32 1247 22 7485
internal_value=0 -0.0193545 -0.0658371 -0.0115435 -0.13702 0.000854864 0.00575149 -0.00478991 -0.0507541 -0.0465911 -0.109305 -0.171354 -0.234104 -0.12441 -0.0544123 -0.0191788 -0.031255 -0.0727075 -0.215863 -0.0337766 -0.129298 -0.0108612 -0.0641163 -0.12996 -0.0149915 -0.0641345 -0.353094 -0.0588719 -0.265659 -0.00943597
internal_count=32769 7507 1080 6427 419 4883 25262 11240 1544 1521 376 189 123 64 66 2734 2108 594 127 467 100 425 225 144 1514 408 59 1342 42 9948
shrinkage=0.03


Tree=13
num_leaves=31
num_cat=0
split_feature=7 7 2 3 6 3 8 8 3 7 4 4 5 3 6 6 6 7 2 6 3 0 0 1 4 4 7 5 3 6
split_gain=3.45895 2.3761 2.75815 3.26385 2.64795 2.05659 1.48378 2.36348 3.24688 4.6388 4.7668 8.91603 3.84564 3.37669 3.14113 2.10135 1.71365 1.95011 1.98564 1.48213 1.49753 1.44509 1.40097 1.39211 1.4622 3.56391 1.39045 3.22207 2.29607 1.69635
threshold=68840.000000000015 291857.00000000006 118166.00000000001 118308.00000000001 282895.50000000006 117957.00000000001 118790.00000000001 118307.50000000001 118174.00000000001 118625.00000000001 118981.50000000001 119161.50000000001 118693.50000000001 118046.50000000001 126750.00000000001 311057.50000000006 123871.50000000001 118411.00000000001 120837.00000000001 121357.50000000001 118454.50000000001 28221.500000000004 41805.500000000007 7077.5000000000009 120681.00000000001 121916.00000000001 19757.000000000004 118796.50000000001 118599.50000000001 121579.50000000001
decision_type=2 2 2 2 2 2 2 2 2 2 2 2 2 2 2 2 2 2 2 2 2 2 2 2 2 2 2 2 2 2
left_child=5 6 -3 4 22 -1 7 -2 9 -9 -11 21 23 -14 -15 16 19 18 -18 -10 -21 -12 -4 24 -13 -26 29 -28 -29 -7
right_child=1 2 3 -5 -6 26 -8 8 15 10 11 12 13 14 -16 -17 17 -19 -20 20 -22 -23 -24 -25 25 -27 27 28 -30 -31
leaf_value=0.00026975991980178184 0.0004512467073729356 6.5609242095321913e-05 -0.002213662405859451 -0.00060281200055455661 -0.011039550595505293 -0.0020258310117563347 0.00049713252362635621 0.00092934775677888757 -0.00023113700041348741 -0.00078258834035357819 -0.018062318935990331 -0.00010452475018647252 0.0015781359225511549 -0.015065094846880662 -0.0013552544798169817 -0.0037962153724586689 -0.00044464015772730382 0.00087471731844058641 -0.009178039720281958 -0.0016169059105583877 -0.008019359213741202 -0.010274374242012317 -0.0066481992629606546 0.00017283596914924987 -0.017446086712181567 -0.0019991319353987532 -0.010745251402258873 -0.001045593238071255 -0.010986953808561614 -0.00037935209297105567
leaf_count=1018 7015 1525 294 661 43 972 9374 506 4097 646 32 49 25 53 21 131 987 2951 24 244 38 65 82 219 20 41 44 230 23 1339
internal_value=0 0.00362399 -0.0251961 -0.063862 -0.132909 -0.0291269 0.00645301 0.000927088 -0.00882885 -0.0490309 -0.0836036 -0.154377 -0.0923375 -0.265137 -0.372482 -0.000871007 0.0011027 0.0161716 -0.021732 -0.0125312 -0.0826549 -0.42812 -0.106026 -0.0403401 -0.132124 -0.235457 -0.0440061 -0.108415 -0.0649784 -0.0357285
internal_count=32769 29143 2605 1080 419 3626 26538 17164 10149 1677 1171 525 428 99 74 8472 8341 3962 1011 4379 282 97 376 329 110 61 2608 297 253 2311
shrinkage=0.03


Tree=14
num_leaves=31
num_cat=0
split_feature=2 7 3 7 6 1 1 1 4 6 3 0 4 0 0 1 4 2 1 5 4 2 6 5 6 1 3 2 1 1
split_gain=3.29932 2.33575 3.07095 2.68637 2.49146 2.38887 2.15174 1.95489 1.59812 1.97121 2.06559 1.84596 2.18584 1.56887 1.54863 1.54694 2.18178 1.38394 1.37905 1.29318 1.52009 1.54602 1.32772 1.18047 4.19917 3.42238 2.65591 4.08066 4.21513 3.93589
threshold=118004.50000000001 291857.00000000006 118308.00000000001 68840.000000000015 282895.50000000006 27886.500000000004 13827.500000000002 72304.500000000015 138392.50000000003 128364.00000000001 118082.50000000001 38705.000000000007 117881.00000000001 20279.500000000004 33251.000000000007 51747.000000000007 117930.50000000001 118217.50000000001 18042.000000000004 258803.50000000003 118064.50000000001 118552.50000000001 192183.00000000003 118285.50000000001 118970.00000000001 71190.500000000015 118064.00000000001 117947.00000000001 52315.000000000007 55843.500000000007
decision_type=2 2 2 2 2 2 2 2 2 2 2 2 2 2 2 2 2 2 2 2 2 2 2 2 2 2 2 2 2 2
left_child=6 3 4 8 18 -5 -1 23 9 10 11 12 14 -14 -2 -12 -17 -18 -3 20 -20 -22 -21 -8 25 26 27 -25 -29 -30
right_child=1 2 -4 5 -6 -7 7 -9 -10 -11 15 -13 13 -15 -16 16 17 -19 19 22 21 -23 -24 24 -26 -27 -28 28 29 -31
leaf_value=0.0004067214814522391 -0.0073073083842578133 -0.0012588105697364093 -0.00058472773175737318 -0.00063672976230931826 -0.010708363943321761 0.00071491814119457593 0.00028091223430249383 0.00092741052170983954 -0.0094188184906607072 0.00018291206529428219 -0.0001885679920973337 -0.0020776452389028336 -0.0094894937588833276 -0.0010153910605346455 -0.018721635214984416 -0.00065577213652431962 -0.0027520000375807286 -0.011493894417698566 -0.010183822719727531 0.0027501320364800366 -1.5897736316773951e-05 -0.0097335712287736978 -0.0057599181614138859 0.0015280733418104977 -8.9653726415742883e-05 -0.010542362346672095 -0.00080625257731405478 -0.0032390815187245607 -0.015539145995947449 -0.0017218997010162898
leaf_count=14104 23 187 661 2567 43 2173 2498 1352 23 435 368 135 32 51 20 88 28 39 59 33 41 23 33 116 5986 39 1229 300 55 28
internal_value=0 -0.0191444 -0.0619461 -0.0114169 -0.128922 -0.000569396 0.00525919 -0.00482766 -0.0528158 -0.0478885 -0.0778423 -0.150502 -0.237553 -0.14275 -0.420543 -0.0415818 -0.125382 -0.261352 -0.102845 -0.163085 -0.223677 -0.11694 -0.0501631 -0.00954157 -0.0156328 -0.0584677 -0.0518561 -0.113382 -0.16315 -0.362597
internal_count=32769 7062 1080 5982 419 4740 25707 11603 1242 1219 784 261 126 83 43 523 155 67 376 189 123 64 66 10251 7753 1767 1728 499 383 83
shrinkage=0.03


Tree=15
num_leaves=31
num_cat=0
split_feature=7 7 2 3 0 3 4 0 5 2 1 0 8 8 3 7 4 4 5 3 4 0 6 6 7 2 3 3 4 0
split_gain=3.15905 2.12125 2.47063 4.57105 2.27854 1.88023 1.78251 1.76134 1.86473 1.48839 1.57988 1.46626 1.73454 2.09001 2.84972 4.39996 4.59006 7.11721 4.06436 3.01146 2.94858 1.74489 1.74137 1.72647 1.92616 1.99496 1.56871 2.14077 5.77733 2.60341
threshold=68840.000000000015 291857.00000000006 118217.50000000001 118308.00000000001 41805.500000000007 118599.50000000001 138392.50000000003 27197.500000000004 126542.50000000001 118964.50000000001 75100.500000000015 6205.0000000000009 118790.00000000001 118307.50000000001 118174.00000000001 118625.00000000001 118981.50000000001 119161.50000000001 118693.50000000001 118046.50000000001 120317.50000000001 28221.500000000004 311057.50000000006 123871.50000000001 118411.00000000001 120837.00000000001 118354.50000000001 118399.50000000001 118633.00000000001 22604.500000000004
decision_type=2 2 2 2 2 2 2 2 2 2 2 2 2 2 2 2 2 2 2 2 2 2 2 2 2 2 2 2 2 2
left_child=5 11 -3 4 7 -1 9 8 -4 10 -7 -2 13 -13 15 -15 -17 21 -19 -20 -21 -18 23 26 25 -25 -16 28 -28 -30
right_child=1 2 3 -5 -6 6 -8 -9 -10 -11 -12 12 -14 14 22 16 17 18 19 20 -22 -23 -24 24 -26 -27 27 -29 29 -31
leaf_value=-0.00063139206939586637 0.00083285776582066925 -1.5361232390024346e-05 -0.0097516663048578343 -0.0005671857239934933 -0.011564548015594481 -0.0026925018030343594 -0.010474689834647707 -0.0012349144216360788 -0.0025829057383441158 0.0020129398121075197 -0.011548236452043056 0.00033802894994895417 0.00045185602712956492 0.00090534235958171928 -9.5926537017142251e-05 -0.00085046487897634505 -0.019126771759986876 -0.0013716464524352271 0.0015320916865020988 -0.0048859179476576468 -0.017428899298648576 -0.0098006803049490998 -0.0037035309837376777 -0.0005610164209236216 0.00081776613113060642 -0.0095109685704759927 -0.01024216755416738 -0.00052842464395809854 -0.009773013740777969 -0.00048958910385082509
leaf_count=3330 2804 1659 69 661 42 194 27 112 62 55 20 6251 8466 460 2598 600 25 301 20 31 37 65 121 881 2614 23 83 838 30 290
internal_value=0 0.00346333 -0.0237674 -0.0645503 -0.170412 -0.0278355 -0.104213 -0.133239 -0.211961 -0.0796281 -0.117338 0.00613632 0.00358141 -0.00278442 -0.0125259 -0.051713 -0.0866249 -0.159622 -0.10099 -0.290034 -0.390359 -0.413042 -0.0044611 -0.00250408 0.0134985 -0.0262908 -0.0171686 -0.0464166 -0.106309 -0.0453303
internal_count=32769 29143 2605 946 285 3626 296 243 131 269 214 26538 23734 15268 9017 1539 1079 479 389 88 68 90 7478 7357 3518 904 3839 1241 403 320
shrinkage=0.03


Tree=16
num_leaves=31
num_cat=0
split_feature=2 7 3 7 6 1 1 1 1 6 6 4 1 4 8 6 0 4 4 4 1 4 8 3 8 5 4 1 1 6
split_gain=3.02421 2.04617 2.73293 2.38813 2.31878 2.23887 1.98096 1.83006 1.41951 2.09179 1.69613 2.40399 2.13256 1.65298 1.33336 2.09789 1.3165 1.16951 1.14027 3.68832 2.3127 3.036 1.09788 1.20165 1.39201 1.98255 3.05447 1.419 2.32671 1.43726
threshold=118004.50000000001 291857.00000000006 118308.00000000001 68840.000000000015 282895.50000000006 27886.500000000004 13827.500000000002 72304.500000000015 51747.000000000007 118576.00000000001 118174.50000000001 117908.00000000001 57716.500000000007 142091.50000000003 126529.00000000001 125745.00000000001 37573.500000000007 119259.50000000001 120622.00000000001 120664.50000000001 19829.500000000004 123562.50000000001 118810.00000000001 118341.50000000001 117980.00000000001 118045.00000000001 118504.00000000001 3249.5000000000005 7391.0000000000009 132299.00000000003
decision_type=2 2 2 2 2 2 2 2 2 2 2 2 2 2 2 2 2 2 2 2 2 2 2 2 2 2 2 2 2 2
left_child=6 3 4 8 14 18 22 -8 13 10 11 -10 -12 -2 15 17 -13 -3 -5 -20 -21 -22 23 24 -1 26 -26 -27 29 -29
right_child=1 2 -4 5 -6 -7 7 -9 9 -11 12 16 -14 -15 -16 -17 -18 -19 19 20 21 -23 -24 -25 25 27 -28 28 -30 -31
leaf_value=0.00070754526759484501 -0.00062347333851637805 -0.0040328831711251819 -0.00055017035471419161 -0.00023154589928106055 -0.010246546538763269 0.00068258890773272983 -0.00027612163474031591 0.00089814642218310797 0.0014422975326406544 -0.00072912221663707006 -0.016833684039967399 -0.011295120238792151 -0.0055669905038343535 -0.0093502736315131188 -0.0083826674272616704 -0.00042220739674740941 -0.0027551565657962453 -0.011747773715427942 -0.013459459433089132 -0.00065253350416563714 -0.012177148778971874 -1.9625679900248846e-05 0.00076431677465109112 0.00063116945726311138 0.0014816367885340813 0.00045050085334511885 -0.013667072796821594 -0.002006187708190707 0.00058198428577281027 -0.00027489318844349471
leaf_count=1538 839 112 661 1848 43 2173 10251 1352 58 185 21 32 54 20 36 207 33 21 23 622 38 36 4700 3623 23 1533 25 1075 866 721
internal_value=0 -0.0183289 -0.0583896 -0.0110963 -0.121572 -0.000868584 0.00503515 -0.00464314 -0.0501294 -0.100759 -0.172195 -0.0999216 -0.290722 -0.0275553 -0.0964148 -0.0770376 -0.231982 -0.175034 -0.0208645 -0.0546538 -0.0416338 -0.208756 0.0129972 0.00675989 -0.00218894 -0.0115314 -0.213611 -0.00921918 -0.0231762 -0.0437055
internal_count=32769 7062 1080 5982 419 4740 25707 11603 1242 383 198 123 75 859 376 340 65 133 2567 719 696 74 14104 9404 5781 4243 48 4195 2662 1796
shrinkage=0.03


Tree=17
num_leaves=31
num_cat=0
split_feature=7 7 2 3 0 3 0 5 6 0 8 8 3 7 4 4 5 6 6 0 6 6 7 2 3 3 4 0 0 6
split_gain=2.87736 1.88385 2.21312 4.08832 2.13462 1.80588 1.67277 1.72015 1.36936 1.36825 1.58418 1.94761 2.65471 4.11827 4.32516 6.67481 3.81218 2.95822 3.33539 1.64359 1.63258 1.6011 1.79758 1.87566 1.49556 2.02197 5.43621 2.44845 2.41413 2.01559
threshold=68840.000000000015 291857.00000000006 118217.50000000001 118308.00000000001 41805.500000000007 117957.00000000001 27197.500000000004 126542.50000000001 136352.50000000003 6205.0000000000009 118790.00000000001 118307.50000000001 118174.00000000001 118625.00000000001 118981.50000000001 119161.50000000001 118693.50000000001 132670.00000000003 124747.00000000001 28221.500000000004 311057.50000000006 123871.50000000001 118411.00000000001 120837.00000000001 118354.50000000001 118399.50000000001 118633.00000000001 22604.500000000004 41805.500000000007 121357.50000000001
decision_type=2 2 2 2 2 2 2 2 2 2 2 2 2 2 2 2 2 2 2 2 2 2 2 2 2 2 2 2 2 2
left_child=5 9 -3 4 6 -1 7 8 -4 -2 11 -11 13 -13 -15 19 -17 18 -18 -16 21 24 23 -23 -14 26 28 -28 -26 -27
right_child=1 2 3 -5 -6 -7 -8 -9 -10 10 -12 12 20 14 15 16 17 -19 -20 -21 -22 22 -24 -25 25 29 27 -29 -30 -31
leaf_value=0.00027463089327066262 0.00080143935547958255 -1.0391995647608909e-05 -0.0064214553065756533 -0.00053366505996001461 -0.011077225559524128 -0.0012152516587345969 -0.0010608417607311691 -0.0024276687132735405 -0.015490155511281708 0.00032512522025897664 0.00042983476414452791 0.00087817713083780322 -8.7988132494770633e-05 -0.0008148029416799545 -0.018537263256311415 -0.001328462987915424 -0.0066667966586960985 0.0013979489249842509 -0.0207642917788547 -0.009485940229434232 -0.0035868128795515405 -0.00054360398187573722 0.00078754386422099645 -0.0092218154280082031 -0.016239511810920454 -9.1134376477363497e-05 -0.0094845085740089419 -0.00048161854826170818 -0.0057851196706295016 -0.0056308001861907538
leaf_count=1018 2804 1659 47 661 42 2608 112 62 22 6251 8466 460 2598 600 25 301 44 21 23 65 121 881 2614 23 33 774 30 290 50 64
internal_value=0 0.00330531 -0.0223565 -0.0609555 -0.161072 -0.0265656 -0.125092 -0.201808 -0.310431 0.0058243 0.00335626 -0.0027274 -0.0121312 -0.0499538 -0.0837296 -0.154589 -0.0978088 -0.280894 -0.383541 -0.400007 -0.00434719 -0.00245229 0.0129583 -0.02548 -0.0165743 -0.0451323 -0.103339 -0.044188 -0.33139 -0.0171404
internal_count=32769 29143 2605 946 285 3626 243 131 69 26538 23734 15268 9017 1539 1079 479 389 88 67 90 7478 7357 3518 904 3839 1241 403 320 83 838
shrinkage=0.03


Tree=18
num_leaves=31
num_cat=0
split_feature=2 1 7 1 1 3 6 1 1 4 6 0 8 1 7 4 2 5 0 0 0 6 1 6 3 0 4 1 1 4
split_gain=2.76229 1.83086 1.79464 2.51025 2.94953 2.21561 1.85521 1.71374 1.67946 1.9062 1.73521 1.57044 1.52657 2.79157 1.45433 1.61685 1.42377 1.23602 2.32794 2.38308 1.1485 1.11299 4.02432 2.91621 3.86157 1.35509 1.15874 1.15069 2.72265 2.5225
threshold=118004.50000000001 13827.500000000002 291857.00000000006 18042.000000000004 20132.000000000004 118082.50000000001 128752.00000000001 72304.500000000015 28253.500000000004 166366.00000000003 204006.50000000003 32276.500000000004 126529.00000000001 51324.000000000007 19757.000000000004 117930.50000000001 118217.50000000001 117882.00000000001 38705.000000000007 37573.500000000007 20301.000000000004 250534.50000000003 26072.500000000004 269410.50000000006 119762.50000000001 19092.500000000004 131288.50000000003 4376.5000000000009 5015.5000000000009 120622.00000000001
decision_type=2 2 2 2 2 2 2 2 2 2 2 2 2 2 2 2 2 2 2 2 2 2 2 2 2 2 2 2 2 2
left_child=1 -1 5 -4 11 6 17 -3 9 21 -11 -5 -6 -14 15 -10 -17 18 19 20 -2 27 23 24 25 -23 -25 -7 29 -29
right_child=2 7 3 4 12 8 -8 -9 14 10 -12 -13 13 -15 -16 16 -18 -19 -20 -21 -22 22 -24 26 -26 -27 -28 28 -30 -31
leaf_value=0.00037399968198937445 -0.0093311636287130798 -0.00026717432820120158 -0.00029308443428228124 -0.016788413308560849 -0.0019293145639799659 0.00095329584535023182 0.00094666206479072554 0.00086916258729465262 1.4018205361128932e-05 -0.001504797451198101 -0.013002899805349962 -0.0055098764866590502 0.00018320835381746293 -0.015302950479090213 0.0007547524418703859 -0.00070492200715386341 -0.0078872470681866005 -0.001509979234152549 -0.0018352164060456081 -0.017279405029756681 -0.0016810761663046748 -0.0088135935634374614 -0.012673740361684133 0.00025025276533354108 -0.015047556079096264 -0.0010200079245602383 -0.0054612912610173224 -0.0013418716183714284 -0.00014210668449200439 -0.0083009959165364095
leaf_count=14104 38 10251 574 20 419 594 125 1352 221 27 21 25 20 22 2032 46 54 185 103 21 33 25 28 535 27 102 34 131 1527 73
internal_value=0 0.00481217 -0.0175172 -0.0550349 -0.106383 -0.0107437 -0.0741233 -0.00449222 -0.00489987 -0.0200973 -0.217841 -0.350752 -0.0825295 -0.264286 0.0152772 -0.0472731 -0.152779 -0.108886 -0.164437 -0.280046 -0.192516 -0.0170115 -0.0504806 -0.0360748 -0.158153 -0.0851393 -0.00303449 -0.00620067 -0.0192327 -0.127738
internal_count=32769 25707 7062 1080 506 5982 505 11603 5477 3124 48 45 461 42 2353 321 100 380 195 92 71 3076 751 723 154 127 569 2325 1731 204
shrinkage=0.03


Tree=19
num_leaves=31
num_cat=0
split_feature=7 7 2 3 0 3 0 5 7 5 3 6 4 6 6 0 4 4 3 1 1 0 8 8 3 7 4 4 5 6
split_gain=2.617 1.67392 1.95935 3.76159 2.02162 1.67081 1.55579 1.6002 1.33439 3.03214 2.01003 1.37406 2.00585 1.80112 3.06753 2.09894 1.77795 1.81071 1.31545 1.31021 4.46348 1.28305 1.49342 1.83176 2.49257 3.88501 4.06884 6.27376 3.58168 2.78362
threshold=68840.000000000015 291857.00000000006 118217.50000000001 118308.00000000001 41805.500000000007 117957.00000000001 27197.500000000004 126542.50000000001 19757.000000000004 118796.50000000001 118599.50000000001 121579.50000000001 118903.00000000001 118174.50000000001 118186.00000000001 38705.000000000007 120404.00000000001 120715.50000000001 118082.50000000001 1340.0000000000002 851.50000000000011 6205.0000000000009 118790.00000000001 118307.50000000001 118174.00000000001 118625.00000000001 118981.50000000001 119161.50000000001 118693.50000000001 132670.00000000003
decision_type=2 2 2 2 2 2 2 2 2 2 2 2 2 2 2 2 2 2 2 2 2 2 2 2 2 2 2 2 2 2
left_child=5 21 19 4 6 -1 7 -4 11 -10 18 12 13 -7 15 -15 -13 -18 -11 20 -3 -2 23 -23 25 -25 -27 -28 -29 -30
right_child=1 2 3 -5 -6 8 -8 -9 9 10 -12 16 -14 14 -16 -17 17 -19 -20 -21 -22 22 -24 24 -26 26 27 28 29 -31
leaf_value=0.00027069020291794023 0.00077268436051554411 0.0016421467409684107 -0.0089137831297905548 -0.00047850671958364258 -0.010679191670247485 -0.000795128260111604 -0.00095513162469225258 -0.0022729261339672147 -0.010323916350237347 -0.0038543286726906382 -0.010247156043415485 0.00018224075890653288 -0.011180146671831608 -0.014462672262029214 -0.0015641757718880068 -0.0044538409618491478 -0.0069776756568596908 -0.00098304513692855822 0.00082403735524707732 0.00015348021178654837 -0.015512889628963808 0.00031155580807005838 0.00041368172900694465 0.0008523232926331137 -0.00013041931415969563 -0.00079430781956762076 -0.01164008317887783 -0.0012942345159443907 -0.01116180220201834 0.0013557820660727363
leaf_count=1018 2804 39 69 661 42 699 112 62 44 87 23 1124 20 33 176 44 65 150 143 1599 21 6251 8466 460 7478 600 90 301 67 21
internal_value=0 0.00315223 -0.0210375 -0.0573561 -0.153389 -0.0253352 -0.118374 -0.192359 -0.0387465 -0.101844 -0.0597067 -0.0306375 -0.0592568 -0.0526725 -0.124971 -0.291445 -0.00986226 -0.0931792 -0.0315202 -0.00032775 -0.145404 0.00552671 0.00313675 -0.00277006 -0.0118899 -0.0485393 -0.0813446 -0.150072 -0.0950243 -0.272488
internal_count=32769 29143 2605 946 285 3626 243 131 2608 297 253 2311 972 952 253 77 1339 215 230 1659 60 26538 23734 15268 9017 1539 1079 479 389 88
shrinkage=0.03


Tree=20
num_leaves=31
num_cat=0
split_feature=2 1 1 7 1 1 3 6 1 4 6 0 8 1 7 4 1 0 5 0 6 1 6 3 0 4 1 1 4 7
split_gain=2.52675 1.71395 1.6018 1.57455 2.32473 2.72308 1.98924 1.69481 1.58669 1.77905 1.61805 1.45238 1.43436 2.62538 1.34305 1.51749 1.38602 1.09362 2.11141 2.16712 1.05169 3.76819 2.74382 3.62805 1.27621 1.08538 1.07329 2.57283 2.37529 1.56895
threshold=118004.50000000001 13827.500000000002 72304.500000000015 291857.00000000006 18042.000000000004 20132.000000000004 118082.50000000001 128752.00000000001 28253.500000000004 166366.00000000003 204006.50000000003 32276.500000000004 126529.00000000001 51324.000000000007 19757.000000000004 117930.50000000001 70251.500000000015 38705.000000000007 117882.00000000001 37573.500000000007 250534.50000000003 26072.500000000004 269410.50000000006 119762.50000000001 19092.500000000004 131288.50000000003 4376.5000000000009 5015.5000000000009 120622.00000000001 123912.50000000001
decision_type=2 2 2 2 2 2 2 2 2 2 2 2 2 2 2 2 2 2 2 2 2 2 2 2 2 2 2 2 2 2
left_child=1 -1 -3 6 -5 11 7 17 9 20 -11 -6 -7 -14 15 -10 -17 18 19 -2 26 22 23 24 -22 -24 -8 28 -28 -30
right_child=3 2 -4 4 5 12 8 -9 14 10 -12 -13 13 -15 -16 16 -18 -19 -20 -21 21 -23 25 -25 -26 -27 27 -29 29 -31
leaf_value=0.00036025488736732346 -0.0054800916589061973 -0.00026000998383303431 0.00083859002068859228 -0.00025005173249630975 -0.016109065555036068 -0.001821908038954177 0.000915722685367471 0.0009163040524721146 2.6415514494229223e-05 -0.0014627012155122225 -0.012565842292138509 -0.0052627293884754175 0.00022948240488767624 -0.014788649407300082 0.00072707007101949629 -0.002004634313942755 -0.0095760527858510611 -0.001599930358847769 -0.0014457297632687314 -0.016450383269361088 -0.0085615003332495682 -0.012274259906262158 0.00023406216899089725 -0.014596734253896605 -0.00099815965904032468 -0.0052937436794095174 -0.0013100091345210111 -0.00013945219536954151 -0.0042845208357487402 -0.013182291642071738
leaf_count=14104 71 10251 1352 574 20 419 594 125 221 27 21 25 20 22 2032 68 32 202 86 21 25 28 535 27 102 34 131 1527 42 31
internal_value=0 0.00460244 -0.00439998 -0.0167537 -0.0518957 -0.10131 -0.0104092 -0.0704637 -0.0048719 -0.0196436 -0.210678 -0.336111 -0.0783905 -0.254572 0.01474 -0.0453698 -0.147583 -0.10369 -0.160838 -0.266139 -0.0166626 -0.0491968 -0.0352571 -0.153671 -0.0829002 -0.0032082 -0.00615364 -0.0187398 -0.124218 -0.268768
internal_count=32769 25707 11603 7062 1080 506 5982 505 5477 3124 48 45 461 42 2353 321 100 380 178 92 3076 751 723 154 127 569 2325 1731 204 73
shrinkage=0.03


Tree=21
num_leaves=31
num_cat=0
split_feature=7 3 7 1 2 7 3 1 6 6 4 1 6 6 5 5 6 5 1 1 6 1 3 1 1 1 6 1 1 3
split_gain=2.3804 1.58931 1.51278 1.84519 1.50562 1.98216 2.21924 2.09158 1.99263 1.21942 2.4724 1.72379 2.83632 2.26211 2.16882 1.21823 3.95918 2.41976 2.17728 1.63857 2.67826 2.51057 2.35111 1.64816 4.44504 1.68009 2.2121 2.53141 2.41945 2.30009
threshold=68840.000000000015 118599.50000000001 19757.000000000004 79834.500000000015 118166.00000000001 291857.00000000006 118308.00000000001 27886.500000000004 282895.50000000006 131691.00000000003 117954.00000000001 30533.500000000004 117898.00000000001 130965.00000000001 118808.00000000001 117965.50000000001 118970.00000000001 118045.00000000001 18042.000000000004 15755.000000000002 118824.00000000001 50696.000000000007 118295.50000000001 19904.500000000004 19650.000000000004 51747.000000000007 118780.50000000001 54685.500000000007 54427.000000000007 118354.50000000001
decision_type=2 2 2 2 2 2 2 2 2 2 2 2 2 2 2 2 2 2 2 2 2 2 2 2 2 2 2 2 2 2
left_child=1 9 3 -3 15 7 8 -6 -7 10 -1 13 -13 -12 -14 -2 17 18 -17 -19 23 22 -22 24 -21 -25 27 28 -27 -28
right_child=4 2 -4 -5 5 6 -8 -9 -10 -11 11 12 14 -15 -16 16 -18 19 -20 20 21 -23 -24 25 -26 26 29 -29 -30 -31
leaf_value=-0.00052880014896159529 0.00067138990595317445 -0.0014813367716700907 -0.0098927094340324397 -0.010949701096862555 -0.00066232487662116915 -0.0025186013557175371 -0.00042744056382265823 0.00065776138385529996 -0.0093359180106673129 0.00011407047763620454 -0.00080401503467473427 -0.014009530702605843 -0.011077105132016268 -0.0093747358652763058 0.00026133074216088472 -0.0088425834729509833 0.00037329755528116634 -0.0001147237178321969 0.00068876294419169422 -0.0012726660331158601 -0.015937134475800498 0.0016163713810965418 -0.0037495698646775309 0.0006397236666287403 -0.0090957183226943027 -0.0014885871717706322 -0.0019321360287722199 0.00011340014490595062 -0.010417865470729089 -0.014218051475472749
leaf_count=1533 3994 251 25 20 2428 376 661 1946 43 1455 207 32 22 32 49 59 13844 3786 34 509 29 24 28 701 75 72 32 434 44 24
internal_value=0 -0.0241628 -0.0943837 -0.0726703 0.00300635 -0.0119735 -0.0503388 -0.00250054 -0.107274 -0.0179209 -0.0347781 -0.111659 -0.219805 -0.065052 -0.1084 0.00645521 0.00322585 -0.0185834 -0.1786 -0.0159989 -0.0393729 -0.217437 -0.331675 -0.0317456 -0.0759113 -0.0120113 -0.0505726 -0.0312939 -0.162518 -0.239918
internal_count=32769 3626 296 271 29143 5454 1080 4374 419 3330 1875 342 103 239 71 23689 19695 5851 93 5758 1972 81 57 1891 584 1307 606 550 116 56
shrinkage=0.03


Tree=22
num_leaves=31
num_cat=0
split_feature=2 1 3 7 1 1 6 1 1 4 6 8 1 0 7 4 2 3 2 3 1 5 6 6 3 8 5 6 6 1
split_gain=2.24606 1.56629 1.48739 1.77585 2.17151 2.5051 1.58209 1.48471 1.42632 1.64883 1.50754 1.35213 2.46597 1.35201 1.21276 1.1253 1.46396 1.04029 1.24558 2.86451 3.80268 4.07915 1.21133 1.53323 1.12708 1.10438 5.43661 1.16128 1.51374 1.10191
threshold=118004.50000000001 13827.500000000002 118082.50000000001 291857.00000000006 18042.000000000004 20132.000000000004 128752.00000000001 72304.500000000015 27886.500000000004 166366.00000000003 204006.50000000003 126529.00000000001 51324.000000000007 32276.500000000004 19757.000000000004 117930.50000000001 118217.50000000001 118280.50000000001 120873.50000000001 119762.50000000001 3694.5000000000005 118409.00000000001 223238.00000000003 287488.50000000006 118346.50000000001 119117.50000000001 119938.50000000001 250534.50000000003 265213.00000000006 13061.500000000002
decision_type=2 2 2 2 2 2 2 2 2 2 2 2 2 2 2 2 2 2 2 2 2 2 2 2 2 2 2 2 2 2
left_child=1 -1 6 8 -5 13 -2 -3 9 17 -11 -7 -13 -6 15 -10 -17 -4 19 24 -21 29 -23 -24 25 -19 -27 -28 -29 -22
right_child=2 7 3 4 5 11 -8 -9 14 10 -12 12 -14 -15 -16 16 -18 18 -20 20 21 22 23 -25 -26 26 27 28 -30 -31
leaf_value=0.00034257365613584139 -0.0030057686466331544 -0.00025124131259528871 0.00041162123777087735 -0.0002018392275538594 -0.015467612251639364 -0.0017237158418412992 0.0008849972167611122 0.00080644074733749295 -0.00010226536833721657 -0.0013989504592286216 -0.012116252652236393 0.00025424165278673167 -0.014300798939710313 -0.005002789217233657 0.00066461190338443969 -0.00020538325257161082 -0.0072929690612687 -0.00043782955240003943 0.001279627604775929 0.0011502592458293355 -0.014924320477212583 0.0010334837290903796 -0.011698250049217181 -0.0014738571169701489 -0.00022144088320348454 -0.013873127949865239 0.0016503141751246792 -0.0086130212271405809 0.0011032184503144689 -0.0076363038982857363
leaf_count=14104 380 10251 839 574 20 419 125 1352 230 27 21 20 22 25 2132 51 54 164 224 87 43 46 22 33 1305 38 70 31 27 33
internal_value=0 0.00433927 -0.0157958 -0.0117682 -0.0488286 -0.0965871 -0.0680903 -0.00426662 -0.00446033 -0.0190699 -0.202926 -0.0746037 -0.245661 -0.321794 0.0133649 -0.0425687 -0.128348 -0.0160905 -0.0278717 -0.0361908 -0.132845 -0.216987 -0.0852998 -0.185454 -0.0205843 -0.0727957 -0.130296 -0.0316913 -0.136331 -0.391993
internal_count=32769 25707 7062 6557 1080 506 505 11603 5477 3010 48 461 42 45 2467 335 105 2962 2123 1899 264 177 101 55 1635 330 166 128 58 76
shrinkage=0.03


Tree=23
num_leaves=31
num_cat=0
split_feature=7 3 7 4 4 6 3 3 4 4 8 7 5 3 3 0 8 8 3 4 4 8 6 6 0 6 6 7 6 6
split_gain=2.18904 1.4967 1.33926 1.59734 2.3297 1.72209 1.9995 3.4142 3.22822 6.01127 1.77372 1.24837 2.76296 1.71175 1.23437 1.19393 1.39521 1.68039 2.30173 3.62227 7.21027 4.02524 2.66334 3.33944 1.66599 1.52973 1.4915 1.59806 1.66875 3.48407
threshold=68840.000000000015 117957.00000000001 291857.00000000006 119332.50000000001 119259.50000000001 192183.00000000003 118247.00000000001 118341.50000000001 118916.00000000001 118525.50000000001 118989.50000000001 19757.000000000004 118796.50000000001 118599.50000000001 118082.50000000001 6205.0000000000009 118790.00000000001 118307.50000000001 118174.00000000001 118981.50000000001 119161.50000000001 118696.00000000001 128945.00000000001 124747.00000000001 28221.500000000004 311057.50000000006 123871.50000000001 118411.00000000001 281762.50000000006 255107.00000000003
decision_type=2 2 2 2 2 2 2 2 2 2 2 2 2 2 2 2 2 2 2 2 2 2 2 2 2 2 2 2 2 2
left_child=1 -1 15 4 5 -4 -7 8 9 -8 -11 -3 -13 14 -14 -2 17 -17 19 -19 24 -22 23 -23 -21 26 -20 28 29 -28
right_child=2 11 3 -5 -6 6 7 -9 -10 10 -12 12 13 -15 -16 16 -18 18 25 20 21 22 -24 -25 -26 -27 27 -29 -30 -31
leaf_value=0.00028042664019526341 0.00073563277795804548 -0.00084063605107576598 -8.5897275591911428e-05 0.00048104885098052344 -0.010182958576083182 0.00050730004799708225 -0.002677770138663404 -0.0010303133329556834 0.0016116903401737989 -0.018587934405853348 -0.0096538837254047383 -0.00984530210494995 -0.0037374544503359958 -0.0095034864026567207 0.00079445150739454722 0.00028776377195754901 0.00038993578025322699 -0.00022626128445551235 -0.0004887187651034195 -0.017550587886571885 -0.00060668653782422293 -0.0058036575061471566 0.0013175388328407122 -0.019804034576467844 -0.0084756385434919326 -0.0034805889236779251 -0.00014124961448954296 0.00074241203118426342 0.00091982959793961562 -0.0052564831887339722
leaf_count=1018 2804 2311 928 876 25 209 102 341 43 36 45 44 87 23 143 6251 8466 927 3839 25 428 46 23 23 67 121 385 2614 345 174
internal_value=0 -0.0231712 0.00288298 -0.0187539 -0.0363798 -0.0319336 -0.0666981 -0.0975166 -0.192835 -0.250769 -0.454152 -0.0358645 -0.096894 -0.0566709 -0.0306597 0.00500688 0.00270142 -0.00300788 -0.0117428 -0.0469611 -0.106669 -0.0610141 -0.250782 -0.349015 -0.364722 -0.00449472 -0.00266048 0.0122134 -0.0240291 -0.0577823
internal_count=32769 3626 29143 2605 1729 1704 776 567 226 183 81 2608 297 253 230 26538 23734 15268 9017 1539 612 520 92 69 92 7478 7357 3518 904 559
shrinkage=0.03


Tree=24
num_leaves=31
num_cat=0
split_feature=2 1 1 3 7 1 1 6 1 4 6 0 8 1 0 7 1 4 4 6 0 5 0 0 6 6 3 4 6 1
split_gain=2.06843 1.45129 1.38553 1.38242 1.58061 2.02376 2.30062 1.49232 1.34571 1.54676 1.77325 1.46448 1.26912 2.30857 1.24718 1.10472 1.10329 1.19282 1.04609 1.31749 1.03144 1.962 2.04235 1.03483 1.02108 1.01159 1.72879 1.04174 3.63903 1.17327
threshold=118004.50000000001 13827.500000000002 72304.500000000015 118082.50000000001 291857.00000000006 18042.000000000004 20132.000000000004 128752.00000000001 27886.500000000004 129027.50000000001 290898.50000000006 27351.000000000004 126529.00000000001 51324.000000000007 32276.500000000004 19757.000000000004 51747.000000000007 117930.50000000001 138392.50000000003 138350.00000000003 38705.000000000007 117882.00000000001 37573.500000000007 20301.000000000004 125274.50000000001 119609.00000000001 118748.00000000001 118558.00000000001 279565.00000000006 48641.000000000007
decision_type=2 2 2 2 2 2 2 2 2 2 2 2 2 2 2 2 2 2 2 2 2 2 2 2 2 2 2 2 2 2
left_child=1 -1 -3 7 8 -6 14 20 9 -5 18 -12 25 -14 -7 16 -10 -18 19 -11 21 22 23 -2 -19 26 -8 -27 29 -29
right_child=3 2 -4 4 5 6 12 -9 15 10 11 -13 13 -15 -16 -17 17 24 -20 -21 -22 -23 -24 -25 -26 27 -28 28 -30 -31
leaf_value=0.0003293747057867782 -0.0085569796358284187 -0.00024264917031632623 0.00077909534612461123 -0.00038615026914243851 -0.00016788663816368955 -0.01482878290861845 -0.0074110547388935907 0.0008762274652719497 0.001076062638774391 -0.01047556132610355 -0.001611460500529834 -0.011745751815086062 0.00026672530174255373 -0.013816153955730524 -0.0047778393387794488 0.0006396446486770772 -0.00087974210775324272 -0.0077334588393568986 0.0006182261064116444 0.00028321779705584049 -0.0014353624814291402 -0.0013099046532324579 -0.015831628824983325 -0.0012953088229352779 0.00020170259848237038 0.00045664614817099783 0.0023087234795093536 -0.0044067773511332845 -0.010164791279753973 0.0027222943483364015
leaf_count=14104 38 10251 1352 2831 574 20 58 125 121 21 21 33 20 22 25 2132 140 54 84 20 202 86 21 33 20 201 23 31 43 63
internal_value=0 0.00416416 -0.0041198 -0.0151583 -0.0112755 -0.0462394 -0.0923445 -0.0655737 -0.00438101 -0.0185718 -0.108723 -0.260155 -0.0712774 -0.237001 -0.308164 0.0129332 -0.040451 -0.0836038 -0.0433044 -0.174246 -0.0967517 -0.152252 -0.253759 -0.172728 -0.186294 -0.0546656 -0.155037 -0.030612 -0.0978568 0.0123739
internal_count=32769 25707 11603 7062 6557 1080 506 505 5477 3010 179 54 461 42 45 2467 335 214 125 41 380 178 92 71 74 419 81 338 137 94
shrinkage=0.03


Tree=25
num_leaves=31
num_cat=0
split_feature=7 3 4 2 1 2 7 1 1 1 8 1 0 5 6 5 1 1 6 4 1 1 1 6 1 1 3 4 4 4
split_gain=1.98765 1.3956 1.43745 1.36962 1.26964 1.2531 1.55065 1.90416 2.16465 1.74185 1.19412 2.17214 1.17347 1.11825 3.60101 2.28923 2.05734 1.46335 2.53555 2.37285 1.53824 4.18422 1.59131 2.05331 2.29894 2.19404 2.18525 1.54174 1.43146 1.51339
threshold=68840.000000000015 118599.50000000001 138392.50000000003 118964.50000000001 75100.500000000015 118166.00000000001 291857.00000000006 18042.000000000004 20132.000000000004 28253.500000000004 126529.00000000001 51324.000000000007 32276.500000000004 117965.50000000001 118970.00000000001 118045.00000000001 18042.000000000004 15755.000000000002 118824.00000000001 118393.00000000001 19904.500000000004 19650.000000000004 51747.000000000007 118780.50000000001 54685.500000000007 54427.000000000007 118354.50000000001 120369.00000000001 121767.00000000001 121138.50000000001
decision_type=2 2 2 2 2 2 2 2 2 2 2 2 2 2 2 2 2 2 2 2 2 2 2 2 2 2 2 2 2 2
left_child=1 -1 3 4 -3 13 9 -8 12 -7 -10 -12 -9 -2 15 16 -15 -17 20 -20 21 28 -22 24 25 27 -25 -24 29 -19
right_child=5 2 -4 -5 -6 6 7 8 10 -11 11 -13 -14 14 -16 17 -18 18 19 -21 22 -23 23 26 -26 -27 -28 -29 -30 -31
leaf_value=-0.00048691572540917911 0.00063451799194239413 -0.0023174125900895324 -0.0092352755864461254 0.0022483761134472762 -0.010256168045103551 -0.00058922677913135621 -0.00016285007462580445 -0.01438391974568367 -0.0015907681473755324 0.00062241047809853927 0.00025872356817126273 -0.013401669331572271 -0.0046345041364431383 -0.00859647507005829 0.00034770356695716935 -0.00011941866899018431 0.00066863836939720547 -0.0015772264606090838 -0.014237977494485677 -0.0029930788905997026 0.00064061721704485757 -0.0087999461799859995 0.0012949484164038528 -0.0017989402601961046 0.00010143459675842165 -0.0099307460727339446 -0.013774194354191423 -0.0085061968602240072 0.001873819632716825 -0.0095027070314339969
leaf_count=3330 3994 194 27 55 20 2522 574 20 419 1852 20 22 25 59 13844 3786 34 379 24 57 701 75 52 32 434 44 24 20 107 23
internal_value=0 -0.0220796 -0.0878821 -0.0658043 -0.101978 0.00274717 -0.0109188 -0.0448522 -0.0895741 -0.00254021 -0.0691391 -0.229891 -0.298919 0.00589354 0.00279952 -0.0179998 -0.173641 -0.015486 -0.037575 -0.21083 -0.0301537 -0.0728213 -0.0110888 -0.0486174 -0.0300434 -0.155098 -0.23104 -0.0475864 -0.0403296 -0.0676891
internal_count=32769 3626 296 269 214 29143 5454 1080 506 4374 461 42 45 23689 19695 5851 93 5758 1972 81 1891 584 1307 606 550 116 56 72 509 402
shrinkage=0.03


Tree=26
num_leaves=31
num_cat=0
split_feature=7 3 0 7 5 3 2 6 6 6 1 1 1 3 1 8 4 4 0 5 1 2 3 3 1 7 1 5 4 3
split_gain=1.87018 1.36929 1.21661 1.46559 1.4335 2.54547 4.1512 1.50848 5.15659 1.75061 1.61558 2.64243 5.18151 3.29809 1.69084 1.53657 1.57981 3.93809 2.59341 1.80089 3.63045 1.56103 1.37777 4.27033 1.27607 1.62351 1.26867 1.23068 1.21676 1.35639
threshold=68840.000000000015 117961.00000000001 6205.0000000000009 262441.50000000006 117905.50000000001 120863.50000000001 121651.50000000001 123906.50000000001 123678.50000000001 278064.50000000006 15755.000000000002 19904.500000000004 19650.000000000004 118354.50000000001 51168.500000000007 126529.00000000001 118382.50000000001 118627.00000000001 25992.000000000004 280135.00000000006 15911.000000000002 118237.50000000001 118046.50000000001 118167.00000000001 16702.000000000004 280703.50000000006 19829.500000000004 118035.50000000001 121138.50000000001 118321.50000000001
decision_type=2 2 2 2 2 2 2 2 2 2 2 2 2 2 2 2 2 2 2 2 2 2 2 2 2 2 2 2 2 2
left_child=1 -1 -2 -4 5 -5 -7 8 10 -9 -6 12 24 26 -13 16 -11 18 21 -19 -21 -18 -16 -24 28 -26 -14 -25 29 -12
right_child=2 -3 3 4 7 6 -8 9 -10 15 11 14 13 -15 22 -17 17 19 -20 20 -22 -23 23 27 25 -27 -28 -29 -30 -31
leaf_value=0.00027491643035486123 0.00065342054470445975 -0.0010129716101077652 0.000231406119643624 0.00047154497084089906 -0.00025362643837327595 -0.013968394126357704 0.0013800733802574021 0.00043328121443342717 -0.014597685467451811 0.0015826338377681751 -0.0074685311922803518 0.00035272990393267532 -0.0099163289442658429 -0.017468596886723271 0.0015396518647236733 -0.0084627878200262772 -0.0060300751196013551 0.00022226737032921093 -0.0030711802238455183 0.0019338228060480425 -0.012034445354206997 -0.016665787589938742 -0.010030704619068848 -0.0070286332307891415 -0.0084370631481019333 -0.00071301600088087298 -0.0013290316751226783 -0.0010555577416058259 -0.011230015454983169 0.0011998505280776455
leaf_count=1043 2988 2583 13527 3009 3371 29 35 2898 24 206 32 771 30 31 103 24 27 643 156 34 33 23 57 33 26 422 32 524 22 33
internal_value=0 -0.0214172 0.00266475 0.000480912 -0.00726661 0.0115208 -0.185823 -0.0133088 -0.0240721 0.00135894 -0.0220491 -0.0437071 -0.098103 -0.315966 -0.0207497 -0.0317272 -0.0263718 -0.0441666 -0.165895 -0.0088483 -0.164869 -0.364083 -0.0557054 -0.0736595 -0.0602314 -0.0387096 -0.182806 -0.0469813 -0.171057 -0.102255
internal_count=32769 3626 29143 26155 12628 3073 64 9555 5511 4044 5487 2116 628 93 1488 1146 1122 916 206 710 67 50 717 614 535 448 62 557 87 65
shrinkage=0.03


Tree=27
num_leaves=31
num_cat=0
split_feature=2 1 3 6 7 3 5 6 6 1 1 4 6 4 2 3 8 8 5 4 1 1 6 5 1 4 7 3 7 4
split_gain=1.78966 1.29139 1.29138 1.41021 1.36439 1.82711 1.5541 2.20087 1.65365 1.27509 1.17699 1.50036 1.32458 1.05052 2.75365 0.984374 1.00212 1.09651 1.61155 2.81713 1.28667 2.15156 1.25749 1.37112 4.59906 1.79124 1.03813 2.32947 1.03266 2.58125
threshold=118004.50000000001 13827.500000000002 118082.50000000001 128752.00000000001 291857.00000000006 118308.00000000001 258803.50000000003 279565.00000000006 125745.00000000001 72304.500000000015 28253.500000000004 166366.00000000003 204006.50000000003 118619.50000000001 118237.50000000001 118341.50000000001 118810.00000000001 117980.00000000001 118045.00000000001 118504.00000000001 3249.5000000000005 7391.0000000000009 132299.00000000003 118549.50000000001 5044.5000000000009 119968.50000000001 300684.50000000006 118321.50000000001 5699.0000000000009 120404.00000000001
decision_type=2 2 2 2 2 2 2 2 2 2 2 2 2 2 2 2 2 2 2 2 2 2 2 2 2 2 2 2 2 2
left_child=1 15 3 -2 10 6 7 8 -6 -3 11 -4 -13 -8 -15 16 17 -1 19 -19 26 22 23 -22 25 -25 -20 -28 29 -18
right_child=2 9 4 -5 5 -7 13 -9 -10 -11 -12 12 -14 14 -16 -17 28 18 20 -21 21 -23 -24 24 -26 -27 27 -29 -30 -31
leaf_value=0.00056980687708282657 -0.0027940521222588263 -0.00023243821212160054 -0.00041779086853635484 0.00087929646223783482 -0.0051910639388009529 -0.00030252373344779194 0.0020311286598443984 -0.0092573526707188832 -0.00017808573577424576 0.00074773967376298451 0.00038848768919706343 -0.0013678604695532056 -0.011413786166480609 0.003111039949581027 -0.011961310252547264 0.00063647160093178328 0.0011795076957958586 0.0017462566786486168 0.0006035339220480531 -0.012802019262313842 -0.0014940462231277376 0.00052688738524776129 -0.00032431353885943945 -0.0060615304148485582 -0.00058847092940370635 -0.016434267815844766 0.00036672891558785182 -0.0093911122025982022 0.00070345275826401324 -0.0054144955985248088
leaf_count=1538 380 10251 3076 125 121 661 80 58 116 1352 2353 27 21 24 20 5211 136 23 1426 25 914 866 721 31 101 29 76 31 2888 88
internal_value=0 0.0038734 -0.0140999 -0.0628269 -0.0103471 -0.0428316 -0.0944928 -0.133978 -0.0912485 -0.00394088 -0.00394154 -0.016664 -0.192098 -0.000556708 -0.124668 0.010302 0.00390693 -0.00388155 -0.0121733 -0.194366 -0.0100886 -0.0233789 -0.0431204 -0.0647905 -0.149883 -0.369167 0.0129895 -0.0820103 0.0183752 -0.0470331
internal_count=32769 25707 7062 505 6557 1080 419 295 237 11603 5477 3124 48 124 44 14104 8893 5781 4243 48 4195 2662 1796 1075 161 60 1533 107 3112 224
shrinkage=0.03


Tree=28
num_leaves=31
num_cat=0
split_feature=7 3 4 2 1 0 7 5 3 2 6 6 6 1 1 1 3 1 2 4 1 7 1 3 3 3 6 4 0 1
split_gain=1.71594 1.30126 1.32997 1.28994 1.19878 1.13002 1.34747 1.2935 2.38073 3.90325 1.41386 4.71777 1.60255 1.5076 2.48246 4.87752 3.10183 1.59888 1.39137 1.79984 2.28623 2.94857 1.97015 1.30061 1.28659 4.01849 1.24562 2.15577 1.24315 1.33021
threshold=68840.000000000015 118599.50000000001 138392.50000000003 118964.50000000001 75100.500000000015 6205.0000000000009 262441.50000000006 117905.50000000001 120863.50000000001 121651.50000000001 123906.50000000001 123678.50000000001 278064.50000000006 15755.000000000002 19904.500000000004 19650.000000000004 118354.50000000001 51168.500000000007 118237.50000000001 118510.50000000001 15479.500000000002 300684.50000000006 51324.000000000007 119066.50000000001 118046.50000000001 118167.00000000001 118254.00000000001 118666.50000000001 23971.500000000004 17554.000000000004
decision_type=2 2 2 2 2 2 2 2 2 2 2 2 2 2 2 2 2 2 2 2 2 2 2 2 2 2 2 2 2 2
left_child=1 -1 3 4 -3 -2 -7 8 -8 -10 11 13 -12 -9 15 26 -17 -16 -14 -20 -21 22 23 -22 -19 -26 27 28 -15 -30
right_child=5 2 -4 -5 -6 6 7 10 9 -11 12 -13 18 14 17 16 -18 24 19 20 21 -23 -24 -25 25 -27 -28 -29 29 -31
leaf_value=-0.00044601320837800565 0.0006292683852230569 -0.0022167965689117147 -0.0088689668145444656 0.002213292811404575 -0.0099308263957500458 0.00022148561024248108 0.00044774285791551364 -0.00024219222404383228 -0.013538733411194949 0.0013442939253790038 0.00041993984871584438 -0.013966218982823193 -0.00028140110742939998 -0.0022497792786452917 0.00035205469144225586 -0.0053126771291417459 -0.016935054544479616 0.0014867320240845958 7.7208479245503738e-05 0.00018284289639885142 -0.0091554790089527771 0.0022939062304794789 -0.0021238613687455652 -0.017925072292918745 -0.0097233261873847562 -0.001360135848836261 0.00019945602707993921 -0.001450710340814535 -0.0042454735092494799 -0.013767573230208888
leaf_count=3330 2988 194 27 55 20 13527 3009 3371 29 35 2898 24 845 32 771 62 31 103 126 59 45 24 24 23 57 557 191 258 23 31
internal_value=0 -0.0205151 -0.0840547 -0.0628183 -0.0979245 0.00255251 0.000447813 -0.00698094 0.0108654 -0.179986 -0.0127205 -0.0231408 0.00147977 -0.0212058 -0.0421275 -0.094851 -0.306227 -0.0198758 -0.0301763 -0.0885577 -0.154172 -0.235687 -0.317118 -0.404055 -0.0538676 -0.0712174 -0.0581072 -0.0940617 -0.231176 -0.323729
internal_count=32769 3626 296 269 214 29143 26155 12628 3073 64 9555 5511 4044 5487 2116 628 93 1488 1146 301 175 116 92 68 717 614 535 344 86 54
shrinkage=0.03


Tree=29
num_leaves=31
num_cat=0
split_feature=2 5 6 7 1 5 2 5 4 2 0 0 3 6 3 6 2 4 2 1 1 1 5 1 3 6 4 5 6 6
split_gain=1.64055 1.21114 1.43336 2.03226 2.1776 2.77641 2.14528 2.34953 1.86429 1.80578 1.60987 1.79964 1.56331 1.32889 1.2994 3.03576 3.3529 1.31632 1.27367 2.83207 1.17839 1.19118 0.980933 0.955507 1.3547 7.10174 3.19278 1.08803 2.51104 1.87241
threshold=118004.50000000001 118035.50000000001 181595.00000000003 291857.00000000006 28253.500000000004 118409.00000000001 118302.50000000001 280135.00000000006 142091.50000000003 119044.50000000001 39263.000000000007 31825.500000000004 119066.50000000001 301527.00000000006 118174.00000000001 287488.50000000006 118132.00000000001 20289.500000000004 120030.00000000001 46611.000000000007 13827.500000000002 72304.500000000015 126542.50000000001 67336.000000000015 118354.50000000001 240753.50000000003 118520.00000000001 118285.50000000001 117905.50000000001 117909.50000000001
decision_type=2 2 2 2 2 2 2 2 2 2 2 2 2 2 2 2 2 2 2 2 2 2 2 2 2 2 2 2 2 2
left_child=20 -2 -3 4 5 9 7 10 14 13 11 -5 -8 -4 15 16 -7 -16 19 22 -1 23 -14 27 -25 26 -26 -22 -29 -30
right_child=1 2 3 6 -6 8 12 -9 -10 -11 -12 -13 18 -15 17 -17 -18 -19 -20 -21 21 -23 -24 24 25 -27 -28 28 29 -31
leaf_value=0.00029548285906723425 -0.0010724884464754531 0.00024581482248258309 -0.0062168329304387402 -0.009968757209809203 0.0010081836556613709 -0.0021608241514435834 0.0019694175548160197 -0.00031574238091707229 -0.0068966889981089572 -0.010601915618995341 -0.014097873650491236 5.4636278322764802e-05 -0.0056599893962795082 0.0018571454810444264 -0.0072147233987396413 0.0013111555020917545 -0.018018542006611821 0.00022103556384244101 0.0011012488603591919 -0.010340868757794733 0.00041904011593528467 0.00072430858777053429 0.002192511605780299 -0.00032047959113562551 -0.01154979164712131 -0.017968914961585633 0.00012254566660728947 -0.0098196724265813811 -0.0013825359489621979 -8.294515264670692e-05
leaf_count=14104 1817 3057 43 38 681 28 97 50 41 41 30 28 22 32 22 55 21 822 50 46 2307 1352 41 405 24 26 174 25 1193 6097
internal_value=0 -0.0134997 -0.00579179 -0.025332 -0.010873 -0.0382851 -0.0895702 -0.186303 -0.0211182 -0.184648 -0.277854 -0.190547 -0.0344024 -0.0923978 -0.012089 -0.117557 -0.298566 0.000907082 -0.0954391 -0.156057 0.00370852 -0.00375604 -0.0183211 -0.00743572 -0.0451965 -0.107599 -0.0430761 -0.00496726 -0.010939 -0.00985406
internal_count=32769 7062 5245 2188 1786 1105 402 146 989 116 96 66 256 75 948 104 49 844 159 109 25707 11603 63 10251 629 224 198 9622 7315 7290
shrinkage=0.03


Tree=30
num_leaves=31
num_cat=0
split_feature=7 4 6 1 6 1 2 3 3 0 0 0 7 5 3 2 6 6 3 4 4 1 1 6 4 8 4 4 0 5
split_gain=1.59378 1.24599 2.00864 1.69708 2.32297 1.90919 1.27648 1.13576 1.82871 1.81617 2.03611 1.05578 1.23849 1.19738 2.2131 3.67329 1.33768 1.56695 1.39791 1.71937 3.58059 2.44121 3.74694 1.98422 1.35943 1.3373 1.42116 3.45417 2.35589 1.55637
threshold=68840.000000000015 117943.00000000001 131982.50000000003 22822.500000000004 130965.00000000001 56609.500000000007 117986.00000000001 118005.50000000001 118082.50000000001 38705.000000000007 37573.500000000007 6205.0000000000009 262441.50000000006 117905.50000000001 120863.50000000001 121651.50000000001 125745.00000000001 278064.50000000006 118207.00000000001 118981.50000000001 119084.00000000001 7011.5000000000009 4589.5000000000009 118445.50000000001 118859.00000000001 126529.00000000001 118382.50000000001 118627.00000000001 25992.000000000004 280135.00000000006
decision_type=2 2 2 2 2 2 2 2 2 2 2 2 2 2 2 2 2 2 2 2 2 2 2 2 2 2 2 2 2 2
left_child=1 7 3 4 -3 6 -5 -1 9 10 -9 -2 -13 14 -14 -16 18 -18 19 24 23 22 -22 -21 -15 26 -19 28 -28 -29
right_child=11 2 -4 5 -6 -7 -8 8 -10 -11 -12 12 13 16 15 -17 17 25 -20 20 21 -23 -24 -25 -26 -27 27 29 -30 -31
leaf_value=0.00037669604123318086 0.00060802864662584763 -0.00033910789569983115 -0.00047330893197397903 -0.013485885381698608 -0.0088368655127637509 -0.0014174035426817442 -0.0059276082464417472 -0.0038520653579722755 -0.00018864934386745577 -0.00092111980376562261 -0.013971675352326461 0.00021222773277592991 0.00043163715845952595 -0.0013408573444040727 -0.013101812102671327 0.0013361397864563125 0.00046260797746174839 0.0015392304416203381 -0.00042452501304777237 -0.012844065960417402 -0.0026328020878136158 -0.00028553616092262042 -0.016148106735199688 -0.0020905115487782852 0.0019884999129023868 -0.0078691432951018218 -0.010305516475439072 0.00022717167340902667 -0.0028223584606670415 -0.004577505430623666
leaf_count=1316 2988 195 659 30 34 57 61 121 930 202 21 13527 3009 568 29 35 2690 206 4589 47 80 251 24 23 137 24 50 643 156 67
internal_value=0 -0.0197713 -0.0490812 -0.107297 -0.0533595 -0.190755 -0.280645 -0.0080474 -0.0293306 -0.0916251 -0.178288 0.00245997 0.000425586 -0.00669641 0.0104741 -0.173535 -0.0122187 0.00222847 -0.021909 -0.0534154 -0.103655 -0.0628966 -0.191724 -0.310359 -0.0231292 -0.0287366 -0.0237405 -0.0406181 -0.154622 -0.00754091
internal_count=32769 3626 1036 377 229 148 91 2590 1274 344 142 29143 26155 12628 3073 64 9555 3836 5719 1130 425 355 104 70 705 1146 1122 916 206 710
shrinkage=0.03


Tree=31
num_leaves=31
num_cat=0
split_feature=2 3 6 7 3 5 6 6 1 1 1 6 1 4 6 3 0 6 6 0 5 0 0 4 4 3 8 8 5 4
split_gain=1.50896 1.11769 1.29892 1.17006 1.63993 1.36129 1.77182 1.54873 1.10103 1.11087 1.03843 1.38615 3.26995 2.29716 2.42679 3.05627 1.18567 0.992494 2.22377 0.924968 1.74466 1.84074 0.974598 0.922066 1.01843 0.914924 0.926222 0.96887 1.50977 2.65779
threshold=118004.50000000001 118082.50000000001 128752.00000000001 291857.00000000006 118308.00000000001 258803.50000000003 279565.00000000006 125745.00000000001 13827.500000000002 72304.500000000015 28253.500000000004 250534.50000000003 26072.500000000004 149438.00000000003 269410.50000000006 119762.50000000001 19092.500000000004 192183.00000000003 200983.50000000003 38705.000000000007 117882.00000000001 37573.500000000007 20301.000000000004 119084.00000000001 118554.00000000001 118341.50000000001 118810.00000000001 117980.00000000001 118045.00000000001 118504.00000000001
decision_type=2 2 2 2 2 2 2 2 2 2 2 2 2 2 2 2 2 2 2 2 2 2 2 2 2 2 2 2 2 2
left_child=8 2 19 10 5 6 7 23 25 -10 11 -3 13 14 15 16 -13 -7 -19 20 21 22 -2 24 -5 26 27 -1 29 -29
right_child=1 3 -4 4 -6 17 -8 -9 9 -11 -12 12 -14 -15 -16 -17 -18 18 -20 -21 -22 -23 -24 -25 -26 -27 -28 28 -30 -31
leaf_value=0.00052026109428415053 -0.0080369340883273827 -0.00010279617271526141 0.00090442539542913436 -0.0060639610290527338 -0.00025539898441797308 0.0027106298005483186 -0.0084628896980450067 -0.00013607503589371155 -0.00021636531368565202 0.00069852088613865464 0.00037025927143670933 -0.0081384449869394311 -0.011633103537772383 -0.010970119833946228 -4.9144835563242334e-06 -0.013425067315498989 -0.00083399348929524418 -0.010352394404736433 0.0014707480607236304 -0.0012315976108876194 -0.0011257994495505511 -0.014871981282319341 -0.00098976859314875171 -0.010872526098042727 0.00022588277235627172 0.00060042858441190327 0.00051710605065896143 0.001710814765614012 -0.00029810838700584062 -0.01242002693116665
leaf_count=1538 38 2354 125 65 661 61 58 116 10251 1352 2353 25 28 21 569 27 100 22 41 202 86 21 33 20 36 5211 3112 23 4195 25
internal_value=0 -0.012947 -0.0582789 -0.00945568 -0.039538 -0.0884815 -0.125436 -0.0870972 0.00355669 -0.00365871 -0.0035238 -0.0154739 -0.0523045 -0.0396454 -0.0301495 -0.142399 -0.0764961 -0.000565481 -0.0885989 -0.0873666 -0.139924 -0.235644 -0.158716 -0.166247 -0.127401 0.00949261 0.00332726 -0.0041605 -0.0119547 -0.1883
internal_count=32769 7062 505 6557 1080 419 295 237 25707 11603 5477 3124 770 742 721 152 125 124 63 380 178 92 71 121 101 14104 8893 5781 4243 48
shrinkage=0.03


Tree=32
num_leaves=31
num_cat=0
split_feature=7 3 7 1 0 0 0 7 4 5 2 1 6 5 3 4 4 6 4 3 6 4 1 6 6 5 5 7 5 3
split_gain=1.46948 1.21548 1.23488 1.57235 0.984241 1.25692 1.86695 2.19575 1.2758 1.20161 1.35098 1.91735 2.80674 1.50093 1.45046 1.11258 1.49263 1.04198 1.47639 1.27023 0.974137 2.09715 1.49386 2.52733 1.96655 1.9442 0.90832 0.864696 0.854249 1.65278
threshold=68840.000000000015 118599.50000000001 19757.000000000004 79834.500000000015 6962.0000000000009 25329.000000000004 18069.000000000004 291857.00000000006 119786.00000000001 118409.00000000001 118983.00000000001 27886.500000000004 197735.00000000003 117905.50000000001 117942.00000000001 120622.00000000001 122697.00000000001 192183.00000000003 118435.00000000001 118341.50000000001 131691.00000000003 117954.00000000001 30533.500000000004 117898.00000000001 130965.00000000001 118808.00000000001 118266.50000000001 118009.00000000001 154533.50000000003 117961.00000000001
decision_type=2 2 2 2 2 2 2 2 2 2 2 2 2 2 2 2 2 2 2 2 2 2 2 2 2 2 2 2 2 2
left_child=1 20 3 -3 -2 6 -6 28 17 10 13 12 15 -7 -15 -12 -17 26 -19 -20 21 -1 24 -24 -23 -25 -9 -16 -8 -30
right_child=4 2 -4 -5 5 9 7 8 -10 -11 11 -13 -14 14 27 16 -18 18 19 -21 -22 22 23 25 -26 -27 -28 -29 29 -31
leaf_value=-0.00038389387494955509 0.00056832053941654657 -0.0011782469677616401 -0.0087915677905082684 -0.0099186002500355249 0.00017914659520392731 0.00050075429340534967 -0.00050437329582766522 -0.0068001119668285046 0.00013040923877902653 0.00032253083583653601 -0.00091670335416334226 0.00057197970058768977 -0.0095604634292575773 -0.0064401997274586122 0.00079953270711536912 -0.011075615501403808 -0.0018573997628896733 -0.0021256982863825909 -0.015661828826096926 -0.0063555612415075301 0.00017669441120833466 -0.00061040302333624464 -0.013002064707688986 -0.010256202932108532 -0.0086016104696318499 0.00047904029944721531 -0.0011434680773791941 -0.00045087409852064686 -0.0095326992952161349 -0.0013864345746961507
leaf_count=1533 3188 251 25 20 2814 2908 2592 36 69 11522 249 240 49 35 560 25 43 34 22 33 1455 207 32 22 32 49 88 4477 27 132
internal_value=0 -0.0189847 -0.0803943 -0.0607764 0.00236209 0.000325369 -0.0125797 -0.0297915 -0.11383 0.00407791 -0.0048771 -0.0503963 -0.0959454 -0.00142038 -0.0118049 -0.0615161 -0.174882 -0.152112 -0.234669 -0.335936 -0.0135261 -0.0285928 -0.0993991 -0.200074 -0.0560118 -0.0949124 -0.0928573 -0.0103952 -0.0211769 -0.0923254
internal_count=32769 3626 296 271 29143 25955 5847 3033 282 20108 8586 606 366 7980 5072 317 68 213 89 55 3330 1875 342 103 239 71 124 5037 2751 159
shrinkage=0.03


Tree=33
num_leaves=31
num_cat=0
split_feature=7 3 4 2 1 0 7 5 3 2 6 6 1 1 1 3 1 6 8 4 4 0 5 1 2 1 1 7 5 3
split_gain=1.38263 1.14364 1.17938 1.21789 1.06408 0.927497 1.11517 1.03555 2.00221 3.37444 1.25741 4.46628 1.34918 2.31948 4.57886 2.94488 1.50364 1.34656 1.20762 1.32152 3.1523 2.1145 1.4405 3.16339 1.25717 1.20229 1.5166 1.90395 1.37356 1.67504
threshold=68840.000000000015 118599.50000000001 138392.50000000003 118964.50000000001 75100.500000000015 6205.0000000000009 262441.50000000006 117905.50000000001 120863.50000000001 121651.50000000001 123906.50000000001 123678.50000000001 15755.000000000002 19904.500000000004 19650.000000000004 118354.50000000001 51168.500000000007 278064.50000000006 126529.00000000001 118382.50000000001 118627.00000000001 25992.000000000004 280135.00000000006 15911.000000000002 118237.50000000001 16702.000000000004 17417.000000000004 280703.50000000006 118533.00000000001 118341.50000000001
decision_type=2 2 2 2 2 2 2 2 2 2 2 2 2 2 2 2 2 2 2 2 2 2 2 2 2 2 2 2 2 2
left_child=1 -1 3 4 -3 -2 -7 8 -8 -10 11 12 -9 14 25 -16 -15 -12 19 -19 21 24 -22 -24 -21 -14 -27 -28 29 -29
right_child=5 2 -4 -5 -6 6 7 10 9 -11 17 -13 13 16 15 -17 -18 18 -20 20 22 -23 23 -25 -26 26 27 28 -30 -31
leaf_value=-0.00039360839967523604 0.00056945972376499306 -0.0020836531881665444 -0.0083166644805007517 0.0022422264624725684 -0.0093513968959450713 0.00020080295689428796 0.00039951187882531554 -0.00021089176311138579 -0.012530615761362272 0.0013075769266911914 0.00040072011354516256 -0.013553491374477745 -0.0048654486136189825 0.00038755947223897112 -0.0050754818260189023 -0.016400007893962246 -0.0015210066445826486 0.0014994485647354312 -0.0074727067118510598 -0.0054053309352861513 0.00022427135380347074 -0.0027064059782200131 0.0020240084355806604 -0.011014818339185281 -0.014949922516294147 0.0021630181454551909 -0.010954386362805962 -0.00020302190250435541 0.0019664947481618988 -0.0051940459718829704
leaf_count=3330 2988 194 27 55 20 13527 3009 3371 29 35 2898 24 87 771 62 31 717 206 24 27 643 156 34 33 23 104 20 129 81 114
internal_value=0 -0.0184152 -0.0779824 -0.0579844 -0.0920961 0.00229123 0.000384445 -0.00637369 0.00959441 -0.165428 -0.0115092 -0.021336 -0.0194533 -0.0392452 -0.0902088 -0.295011 -0.0177364 0.00188238 -0.0271354 -0.0223877 -0.0386629 -0.147571 -0.00706414 -0.146603 -0.326528 -0.0546077 -0.0337172 -0.0657086 -0.0472248 -0.0848163
internal_count=32769 3626 296 269 214 29143 26155 12628 3073 64 9555 5511 5487 2116 628 93 1488 4044 1146 1122 916 206 710 67 50 535 448 344 324 243
shrinkage=0.03


Tree=34
num_leaves=31
num_cat=0
split_feature=2 3 6 7 1 1 1 1 3 5 6 3 1 1 4 6 3 2 8 5 1 0 7 2 3 1 1 3 6 4
split_gain=1.3234 1.04835 1.21267 1.05679 1.51317 1.75064 0.993158 1.04504 0.982024 1.51928 0.984715 0.974114 2.57727 0.961142 1.26561 1.1101 0.947459 1.22901 1.48776 5.94908 2.5303 0.946708 0.944593 1.5854 4.55237 2.00209 0.89942 1.28091 6.70648 2.99971
threshold=118004.50000000001 118082.50000000001 128752.00000000001 291857.00000000006 18042.000000000004 20132.000000000004 13827.500000000002 72304.500000000015 118308.00000000001 258803.50000000003 192183.00000000003 119066.50000000001 52735.500000000007 27886.500000000004 166366.00000000003 204006.50000000003 118280.50000000001 118332.00000000001 119117.50000000001 119938.50000000001 2645.0000000000005 32276.500000000004 280703.50000000006 120944.00000000001 120863.50000000001 16578.500000000004 67336.000000000015 118354.50000000001 240753.50000000003 118520.00000000001
decision_type=2 2 2 2 2 2 2 2 2 2 2 2 2 2 2 2 2 2 2 2 2 2 2 2 2 2 2 2 2 2
left_child=6 2 -2 13 -5 21 -1 26 9 -7 -10 -12 -13 14 16 -16 -3 18 -18 -20 -21 -6 -19 24 25 -24 -8 -28 29 -29
right_child=1 3 -4 4 5 8 7 -9 10 -11 11 12 -14 -15 15 -17 17 22 19 20 -22 -23 23 -25 -26 -27 27 28 -30 -31
leaf_value=0.00026905402730013569 -0.0025240025612476625 0.00047883959129648075 0.00088236565679311748 -6.5662560380917392e-05 -0.012828852251172066 -0.0054518518280237908 -0.00013720946021748167 0.00067830757127755137 0.00096088202500885179 0.00030128824923719678 0.0015261960588395594 -0.0091268903682840633 0.001165146727750941 0.00034579527545093667 -0.0012617904610104031 -0.010458460322448184 -0.00038489151082121497 -2.2584159338747924e-05 -0.013779723954133011 -0.010263752522878348 0.00031965399287024829 -0.0040719515472650526 0.00012295794559688102 0.0017063832353143131 -0.013232481676866026 -0.0071496732550304989 -0.00030131033945966649 -0.011189995598979293 -0.01745335777505086 0.00012392844298276409
leaf_count=14104 380 839 125 574 20 120 9622 1352 154 63 36 47 41 2467 27 21 202 1394 44 24 133 25 164 85 34 43 405 24 26 174
internal_value=0 -0.0121248 -0.0560281 -0.00874354 -0.0373328 -0.0771997 0.00333083 -0.003522 -0.0588225 -0.115709 -0.0213758 -0.0877016 -0.144391 -0.00310608 -0.015099 -0.176178 -0.0124886 -0.0237319 -0.0734385 -0.134349 -0.0432731 -0.265464 -0.0120856 -0.0605453 -0.101961 -0.0462594 -0.00696857 -0.0436044 -0.104283 -0.0415819
internal_count=32769 7062 505 6557 1080 506 25707 11603 461 183 278 124 88 5477 3010 48 2962 2123 403 201 157 45 1720 326 241 207 10251 629 224 198
shrinkage=0.03


Tree=35
num_leaves=31
num_cat=0
split_feature=7 4 6 1 1 3 2 5 3 3 0 0 1 4 4 4 0 0 0 0 7 4 5 2 1 6 5 3 4 4
split_gain=1.29353 1.13689 1.78812 2.17579 1.8864 2.34679 2.32165 1.66397 1.00865 1.61739 1.63211 1.79885 0.986804 0.919999 0.876132 1.60395 0.872826 0.867419 1.16537 1.75261 1.95761 1.15883 1.11011 1.21909 1.72927 2.6198 1.36167 1.36792 0.958559 1.33771
threshold=68840.000000000015 117943.00000000001 164049.00000000003 22822.500000000004 56609.500000000007 117987.00000000001 118279.50000000001 118565.50000000001 118005.50000000001 118082.50000000001 38705.000000000007 37573.500000000007 101401.00000000001 117881.00000000001 120404.00000000001 120413.50000000001 33251.000000000007 6962.0000000000009 25329.000000000004 18069.000000000004 291857.00000000006 119786.00000000001 118409.00000000001 118983.00000000001 27886.500000000004 197735.00000000003 117905.50000000001 117942.00000000001 120622.00000000001 122697.00000000001
decision_type=2 2 2 2 2 2 2 2 2 2 2 2 2 2 2 2 2 2 2 2 2 2 2 2 2 2 2 2 2 2
left_child=1 8 3 -3 5 -5 -7 -6 13 10 11 16 -11 -1 -4 -16 -10 -2 19 -19 -21 -22 23 26 25 28 -20 -28 -25 -30
right_child=17 2 14 4 7 6 -8 -9 9 12 -12 -13 -14 -15 15 -17 -18 18 22 20 21 -23 -24 24 -26 -27 27 -29 29 -31
leaf_value=0.0011906969944559256 0.00053348826495708528 -0.0010452410538943069 0.00073832361210632866 -0.01666677727550268 -0.0083603309946400778 -0.0034405444512764613 -0.014740575917065143 0.0016181112017552807 -0.005175884816456925 -1.4610008241319814e-06 -0.00082509202384712667 -0.013127350988132612 -0.0065793492857898987 -0.00039594042327906518 -0.0079357430292293432 -0.00051505150748737925 0.00054521329023621301 0.00017556314497614212 0.00047535821794182507 -0.00061993292818250157 -0.0043390242440599783 0.00013441519406826599 0.00030994391346871177 -0.00087563683559377511 0.00054111826373264189 -0.0091913686677509415 -0.0062492697983980178 -0.00029784952211035651 -0.010412921816110612 -0.0016861581386521803
leaf_count=647 3188 309 346 20 21 90 20 53 88 909 202 21 21 669 32 145 33 2814 2908 2751 213 69 11522 249 240 49 35 5037 25 43
internal_value=0 -0.0178119 -0.0458092 -0.0877572 -0.167909 -0.240461 -0.18317 -0.0404536 -0.00661295 -0.0266699 -0.0852547 -0.167408 -0.0049998 0.0128039 -0.00466324 -0.0618882 -0.12052 0.00221617 0.000304135 -0.0121221 -0.0287985 -0.108149 0.00391743 -0.00468989 -0.0479301 -0.0911875 -0.00140623 -0.0112973 -0.0579244 -0.163151
internal_count=32769 3626 1036 513 204 130 110 74 2590 1274 344 142 930 1316 523 177 121 29143 25955 5847 3033 282 20108 8586 606 366 7980 5072 317 68
shrinkage=0.03


Tree=36
num_leaves=31
num_cat=0
split_feature=7 3 7 5 3 3 6 4 4 4 6 6 0 0 0 4 4 5 0 0 0 7 4 5 2 1 6 5 3 6
split_gain=1.21708 1.07257 1.13296 2.41688 1.28325 1.1435 0.902494 1.63715 1.39632 1.60526 1.39101 2.26831 1.47794 1.18536 2.61149 2.05315 1.00053 0.872506 0.817697 1.02956 1.72829 1.84192 1.09034 1.04451 1.14705 1.62707 2.46497 1.2812 1.28707 0.921472
threshold=68840.000000000015 117957.00000000001 19757.000000000004 118796.50000000001 118599.50000000001 118082.50000000001 121579.50000000001 118903.00000000001 120404.00000000001 120715.50000000001 118174.50000000001 118186.00000000001 38705.000000000007 29104.000000000004 27351.000000000004 117930.50000000001 117908.00000000001 120019.50000000001 6205.0000000000009 25329.000000000004 18069.000000000004 291857.00000000006 119786.00000000001 118409.00000000001 118983.00000000001 27886.500000000004 197735.00000000003 117905.50000000001 117942.00000000001 192183.00000000003
decision_type=2 2 2 2 2 2 2 2 2 2 2 2 2 2 2 2 2 2 2 2 2 2 2 2 2 2 2 2 2 2
left_child=1 -1 6 -4 5 17 7 10 -8 -10 13 12 -12 14 -3 -16 -13 -5 -2 20 -20 -22 29 24 27 26 -26 -21 -29 -23
right_child=18 2 3 4 -6 -7 8 -9 9 -11 11 16 -14 -15 15 -17 -18 -19 19 23 21 22 -24 -25 25 -27 -28 28 -30 -31
leaf_value=0.0003075229618442199 0.0005346415935076743 -0.00059147962109213736 -0.0090742905421013174 -0.0057278988038056656 -0.0082127048496318904 0.0008692853553937031 0.00031228351121721955 -0.0098068277500569807 -0.0062643754287407946 -0.00062006717324256892 -0.012133852419528093 0.0011528279476387556 -0.0037351583012125707 0.00057798703391867946 -0.002630842293479613 -0.014727738544992779 -0.0033722073535124458 0.00054531647553366996 0.00017632459955909194 0.00046109745818276104 -0.00060133494741426556 -0.0025371598749752006 0.00013038277626037595 0.00030064559164813483 -0.0016856011388711749 0.00052488470822572696 -0.0089156274451893201 -0.0060617914157254354 -0.00028891403125981758 -0.0065379547160328106
leaf_count=1018 2988 233 44 56 23 143 1124 20 65 150 33 86 44 415 28 23 90 31 3014 2908 2751 124 69 11522 317 240 49 35 5037 89
internal_value=0 -0.0172775 -0.0280228 -0.0861628 -0.0485431 -0.0260217 -0.0205509 -0.0437451 -0.00371391 -0.0775495 -0.0377966 -0.101333 -0.244487 -0.0147998 -0.0645794 -0.269544 -0.0387037 -0.116421 0.00214968 0.000359318 -0.0110816 -0.0279345 -0.104904 0.00379991 -0.00454919 -0.0464922 -0.0884518 -0.00136404 -0.0109584 -0.140295
internal_count=32769 3626 2608 297 253 230 2311 972 1339 215 952 253 77 699 284 51 176 87 29143 26155 6047 3033 282 20108 8586 606 366 7980 5072 213
shrinkage=0.03


Tree=37
num_leaves=31
num_cat=0
split_feature=1 1 2 4 5 0 3 1 1 7 3 2 3 4 4 7 3 4 6 6 1 1 4 3 1 6 7 6 8 8
split_gain=1.16221 1.2514 1.1001 1.85929 2.01292 1.638 1.21628 1.05005 1.33077 1.91797 3.48096 0.955778 1.33341 1.86862 1.96446 2.26603 1.35607 1.33247 1.78205 2.56192 1.50697 0.980312 0.940128 1.34262 0.954487 0.934773 1.54201 0.910102 3.43838 2.57212
threshold=13827.500000000002 78418.000000000015 118920.00000000001 166366.00000000003 118183.00000000001 30908.500000000004 118341.50000000001 7300.5000000000009 1721.0000000000002 300684.50000000006 118321.50000000001 120030.00000000001 118897.50000000001 120969.00000000001 123665.50000000001 280703.50000000006 119762.50000000001 118038.50000000001 121357.50000000001 130847.00000000001 51324.000000000007 71478.000000000015 119810.00000000001 120863.50000000001 6281.0000000000009 279565.00000000006 291857.00000000006 119609.00000000001 118989.50000000001 122319.00000000001
decision_type=2 2 2 2 2 2 2 2 2 2 2 2 2 2 2 2 2 2 2 2 2 2 2 2 2 2 2 2 2 2
left_child=2 11 6 4 5 -4 7 8 9 -1 -11 12 27 17 15 -15 -16 18 -14 -20 -21 25 24 -24 -7 -19 -27 28 -2 -30
right_child=1 -3 3 -5 -6 22 -8 -9 -10 10 -12 -13 13 14 16 -17 -18 21 19 20 -22 -23 23 -25 -26 26 -28 -29 29 -31
leaf_value=0.00074406348209551791 -0.00039776877166144005 0.00049425838937662786 0.00042663930229058387 -0.0080660694224699847 0.00024631549323544802 -0.0055367361210653041 0.00057640185877262423 0.00061390530686930664 -0.00035506677321790417 0.0014929189226989235 -0.014894001798704266 0.0012192166090573904 0.00083047464489936827 -0.0041431259470326555 0.00018429998891899386 -0.016608473333929268 -0.0063304712242362171 0.00075970920289566914 -0.014924456503774438 5.6046717613935463e-05 -0.0083627528156484318 -0.0050278663284638349 -0.0028239736687391995 -0.013252424830198287 0.00086072739330120382 0.0010957779814588264 -0.0068651812141988329 -5.1583921310728395e-05 -0.0067360994235976879 5.1931588427175442e-05
leaf_count=1739 4459 2147 76 31 647 61 5877 2161 5826 28 20 371 63 35 83 21 44 463 21 50 31 34 20 25 32 47 41 8099 138 79
internal_value=0 -0.00601329 0.00589806 -0.0282603 -0.0195973 -0.10367 0.00784485 0.00100907 -0.00451321 0.0193592 -0.177832 -0.00944272 -0.0107982 -0.0472933 -0.137893 -0.293921 -0.0690929 -0.0251871 -0.104553 -0.186228 -0.105532 -0.00280188 -0.168596 -0.287252 -0.111182 0.00736688 -0.0871102 -0.00813283 -0.019241 -0.142163
internal_count=32769 16226 16543 892 861 214 15651 9774 7613 1787 48 14079 13708 933 183 56 127 750 165 102 81 585 138 45 93 551 88 12775 4676 217
shrinkage=0.03


Tree=38
num_leaves=31
num_cat=0
split_feature=0 7 4 5 6 0 0 7 4 5 2 1 6 5 3 6 6 6 0 0 0 2 4 4 5 3 3 1 1 0
split_gain=1.12789 1.18034 1.46457 3.08026 1.11756 1.0341 1.54935 1.70738 1.01037 0.978861 1.01945 1.45399 2.29832 1.20553 1.20694 0.964741 1.19302 2.45363 1.39011 1.32924 3.4234 2.35905 1.66354 1.28994 0.963503 1.0887 1.20304 1.74996 1.02995 0.923081
threshold=6962.0000000000009 68840.000000000015 118558.00000000001 118796.50000000001 177150.50000000003 25329.000000000004 18069.000000000004 291857.00000000006 119786.00000000001 118409.00000000001 118983.00000000001 27886.500000000004 197735.00000000003 117905.50000000001 117942.00000000001 121579.50000000001 118174.50000000001 118186.00000000001 38705.000000000007 31222.500000000004 27351.000000000004 117917.00000000001 117930.50000000001 117908.00000000001 122271.50000000001 117948.00000000001 118046.50000000001 20561.500000000004 3117.0000000000005 3850.0000000000005
decision_type=2 2 2 2 2 2 2 2 2 2 2 2 2 2 2 2 2 2 2 2 2 2 2 2 2 2 2 2 2 2
left_child=29 2 15 -4 24 6 -3 -8 -9 10 13 12 -12 -7 -15 16 19 18 -18 20 -2 -22 -23 -19 25 -5 27 -27 -28 -1
right_child=1 5 3 4 -6 9 7 8 -10 -11 11 -13 -14 14 -16 -17 17 23 -20 -21 21 22 -24 -25 -26 26 28 -29 -30 -31
